{"learner":{"attributes":{"scikit_learn":"{\"_estimator_type\": \"classifier\"}"},"feature_names":[],"feature_types":[],"gradient_booster":{"model":{"cats":{"enc":[],"feature_segments":[],"sorted_idx":[]},"gbtree_model_param":{"num_parallel_tree":"1","num_trees":"400"},"iteration_indptr":[0,1,2,3,4,5,6,7,8,9,10,11,12,13,14,15,16,17,18,19,20,21,22,23,24,25,26,27,28,29,30,31,32,33,34,35,36,37,38,39,40,41,42,43,44,45,46,47,48,49,50,51,52,53,54,55,56,57,58,59,60,61,62,63,64,65,66,67,68,69,70,71,72,73,74,75,76,77,78,79,80,81,82,83,84,85,86,87,88,89,90,91,92,93,94,95,96,97,98,99,100,101,102,103,104,105,106,107,108,109,110,111,112,113,114,115,116,117,118,119,120,121,122,123,124,125,126,127,128,129,130,131,132,133,134,135,136,137,138,139,140,141,142,143,144,145,146,147,148,149,150,151,152,153,154,155,156,157,158,159,160,161,162,163,164,165,166,167,168,169,170,171,172,173,174,175,176,177,178,179,180,181,182,183,184,185,186,187,188,189,190,191,192,193,194,195,196,197,198,199,200,201,202,203,204,205,206,207,208,209,210,211,212,213,214,215,216,217,218,219,220,221,222,223,224,225,226,227,228,229,230,231,232,233,234,235,236,237,238,239,240,241,242,243,244,245,246,247,248,249,250,251,252,253,254,255,256,257,258,259,260,261,262,263,264,265,266,267,268,269,270,271,272,273,274,275,276,277,278,279,280,281,282,283,284,285,286,287,288,289,290,291,292,293,294,295,296,297,298,299,300,301,302,303,304,305,306,307,308,309,310,311,312,313,314,315,316,317,318,319,320,321,322,323,324,325,326,327,328,329,330,331,332,333,334,335,336,337,338,339,340,341,342,343,344,345,346,347,348,349,350,351,352,353,354,355,356,357,358,359,360,361,362,363,364,365,366,367,368,369,370,371,372,373,374,375,376,377,378,379,380,381,382,383,384,385,386,387,388,389,390,391,392,393,394,395,396,397,398,399,400],"tree_info":[0,0,0,0,0,0,0,0,0,0,0,0,0,0,0,0,0,0,0,0,0,0,0,0,0,0,0,0,0,0,0,0,0,0,0,0,0,0,0,0,0,0,0,0,0,0,0,0,0,0,0,0,0,0,0,0,0,0,0,0,0,0,0,0,0,0,0,0,0,0,0,0,0,0,0,0,0,0,0,0,0,0,0,0,0,0,0,0,0,0,0,0,0,0,0,0,0,0,0,0,0,0,0,0,0,0,0,0,0,0,0,0,0,0,0,0,0,0,0,0,0,0,0,0,0,0,0,0,0,0,0,0,0,0,0,0,0,0,0,0,0,0,0,0,0,0,0,0,0,0,0,0,0,0,0,0,0,0,0,0,0,0,0,0,0,0,0,0,0,0,0,0,0,0,0,0,0,0,0,0,0,0,0,0,0,0,0,0,0,0,0,0,0,0,0,0,0,0,0,0,0,0,0,0,0,0,0,0,0,0,0,0,0,0,0,0,0,0,0,0,0,0,0,0,0,0,0,0,0,0,0,0,0,0,0,0,0,0,0,0,0,0,0,0,0,0,0,0,0,0,0,0,0,0,0,0,0,0,0,0,0,0,0,0,0,0,0,0,0,0,0,0,0,0,0,0,0,0,0,0,0,0,0,0,0,0,0,0,0,0,0,0,0,0,0,0,0,0,0,0,0,0,0,0,0,0,0,0,0,0,0,0,0,0,0,0,0,0,0,0,0,0,0,0,0,0,0,0,0,0,0,0,0,0,0,0,0,0,0,0,0,0,0,0,0,0,0,0,0,0,0,0,0,0,0,0,0,0,0,0,0,0,0,0,0,0,0,0,0,0,0,0,0,0,0,0,0,0,0,0,0,0,0,0,0,0,0,0,0,0,0,0,0,0,0,0,0,0,0,0],"trees":[{"base_weights":[9.79225E-4,-3.8532382E-1,8.2495344E-1,-5.701594E-1,4.945361E-1,6.741471E-1,1.5000467E0,-6.591408E-1,8.943571E-1,3.8592842E-1,1.3098806E0,4.5819336E-1,1.0487092E0,1.4134935E0,1.6170894E0,-3.9849368E-1,-1.0722109E0,6.602741E-1,1.0368572E0,2.724458E-1,7.3626417E-1,1.2360427E0,1.4119859E0,1.7499442E-1,7.7293235E-1,9.248112E-1,1.2996339E0,1.3347611E0,1.5230618E0,1.5581093E0,1.6800766E0,-5.552286E-2,-1.2001245E-2,-5.9510823E-2,-3.4141329E-3,2.9906306E-2,4.6936672E-2,5.3830415E-2,4.7497686E-2,1.2114105E-3,2.0481605E-2,2.7569342E-2,3.930039E-2,6.023661E-2,7.036158E-2,6.844102E-2,7.378311E-2,2.3243805E-2,-6.330212E-3,3.196683E-2,4.971915E-2,3.870554E-2,5.3376347E-2,5.8210284E-2,6.732635E-2,6.891134E-2,6.348809E-2,7.406465E-2,7.734473E-2,7.944392E-2,7.51211E-2,8.583029E-2,8.2728356E-2],"categories":[],"categories_nodes":[],"categories_segments":[],"categories_sizes":[],"default_left":[0,0,0,0,0,0,0,0,0,0,0,0,0,0,0,0,0,0,0,0,0,0,0,0,0,0,0,0,0,0,0,0,0,0,0,0,0,0,0,0,0,0,0,0,0,0,0,0,0,0,0,0,0,0,0,0,0,0,0,0,0,0,0],"id":0,"left_children":[1,3,5,7,9,11,13,15,17,19,21,23,25,27,29,31,33,35,37,39,41,43,45,47,49,51,53,55,57,59,61,-1,-1,-1,-1,-1,-1,-1,-1,-1,-1,-1,-1,-1,-1,-1,-1,-1,-1,-1,-1,-1,-1,-1,-1,-1,-1,-1,-1,-1,-1,-1,-1],"loss_changes":[1.4076953E5,4.8966293E4,1.4370195E4,3.242546E4,4.6282236E3,9.332879E3,2.588164E2,2.5254492E4,4.7472852E2,1.8337139E3,4.457422E1,6.523631E3,1.3106484E3,1.2585547E2,3.8066406E1,1.6226111E4,1.0750883E4,9.281787E1,2.9575195E1,1.1864819E3,1.03354004E2,1.7458496E1,5.0478516E0,3.3683945E3,1.024916E3,6.067949E2,8.699609E1,2.2643555E1,3.8710938E0,7.3271484E0,2.0820312E0,0E0,0E0,0E0,0E0,0E0,0E0,0E0,0E0,0E0,0E0,0E0,0E0,0E0,0E0,0E0,0E0,0E0,0E0,0E0,0E0,0E0,0E0,0E0,0E0,0E0,0E0,0E0,0E0,0E0,0E0,0E0,0E0],"parents":[2147483647,0,0,1,1,2,2,3,3,4,4,5,5,6,6,7,7,8,8,9,9,10,10,11,11,12,12,13,13,14,14,15,15,16,16,17,17,18,18,19,19,20,20,21,21,22,22,23,23,24,24,25,25,26,26,27,27,28,28,29,29,30,30],"right_children":[2,4,6,8,10,12,14,16,18,20,22,24,26,28,30,32,34,36,38,40,42,44,46,48,50,52,54,56,58,60,62,-1,-1,-1,-1,-1,-1,-1,-1,-1,-1,-1,-1,-1,-1,-1,-1,-1,-1,-1,-1,-1,-1,-1,-1,-1,-1,-1,-1,-1,-1,-1,-1],"split_conditions":[1.2296056E0,2.291907E0,4.3037896E0,4.3037896E0,4.3037896E0,2.291907E0,2.167627E0,-4.5458102E-1,2.9158384E-1,2.1083953E0,2.1083953E0,2.1083953E0,2.167627E0,2.291907E0,2.291907E0,-6.464378E-1,2.1083953E0,2.1083953E0,-4.5458102E-1,2.9158384E-1,2.9158384E-1,2.2643425E-1,-1.009643E-1,-4.5458102E-1,2.167627E0,2.1083953E0,2.1083953E0,-2.2692558E-1,2.1083953E0,1.2528347E0,-4.5458102E-1,-5.552286E-2,-1.2001245E-2,-5.9510823E-2,-3.4141329E-3,2.9906306E-2,4.6936672E-2,5.3830415E-2,4.7497686E-2,1.2114105E-3,2.0481605E-2,2.7569342E-2,3.930039E-2,6.023661E-2,7.036158E-2,6.844102E-2,7.378311E-2,2.3243805E-2,-6.330212E-3,3.196683E-2,4.971915E-2,3.870554E-2,5.3376347E-2,5.8210284E-2,6.732635E-2,6.891134E-2,6.348809E-2,7.406465E-2,7.734473E-2,7.944392E-2,7.51211E-2,8.583029E-2,8.2728356E-2],"split_indices":[1,4,2,2,2,4,1,12,1,3,3,3,1,4,4,1,3,3,12,1,1,5,5,12,1,3,3,12,3,12,12,0,0,0,0,0,0,0,0,0,0,0,0,0,0,0,0,0,0,0,0,0,0,0,0,0,0,0,0,0,0,0,0],"split_type":[0,0,0,0,0,0,0,0,0,0,0,0,0,0,0,0,0,0,0,0,0,0,0,0,0,0,0,0,0,0,0,0,0,0,0,0,0,0,0,0,0,0,0,0,0,0,0,0,0,0,0,0,0,0,0,0,0,0,0,0,0,0,0],"sum_hessian":[4.4224703E5,3.0108853E5,1.4115852E5,2.488186E5,5.226993E4,1.1538511E5,2.5773406E4,2.3456725E5,1.4251342E4,4.6127066E4,6.1428647E3,7.318976E4,4.2195348E4,1.4824069E4,1.0949337E4,1.4381927E5,9.074798E4,5.39488E3,8.856462E3,3.484248E4,1.1284586E4,3.5724983E3,2.5703667E3,3.8526004E4,3.4663754E4,2.8250783E4,1.3944563E4,8.633492E3,6.190577E3,5.6678223E3,5.281514E3,2.618229E4,1.1763698E5,8.120289E4,9.545084E3,4.413092E3,9.817879E2,6.069013E3,2.7874485E3,1.2402761E4,2.2439719E4,2.3950847E3,8.889502E3,3.0269106E3,5.455877E2,1.5453109E3,1.0250558E3,1.964432E4,1.8881686E4,2.162301E4,1.3040745E4,1.3744124E4,1.4506658E4,3.5931855E3,1.0351378E4,5.161654E3,3.4718389E3,2.2719592E3,3.918618E3,3.6329604E3,2.0348617E3,2.1444224E3,3.1370918E3],"tree_param":{"num_deleted":"0","num_feature":"15","num_nodes":"63","size_leaf_vector":"1"}},{"base_weights":[1.9777874E-3,-1.163282E0,5.044518E-1,-1.430557E0,-2.1086752E-1,-1.5813805E-1,7.7348894E-1,-1.4756072E0,5.4088026E-1,-7.039695E-1,3.990312E-1,-6.0751873E-1,2.5135648E-1,4.8842186E-1,1.0469701E0,-1.6379448E0,-1.1310943E0,4.042583E-1,9.462469E-1,-1.1923618E0,-3.056014E-1,1.3001554E-1,1.2442924E0,-6.701503E-1,6.5660626E-1,1.8748507E-1,8.966934E-1,1.1597675E-1,7.821397E-1,7.797539E-1,1.2125586E0,-8.230912E-2,-2.9154602E-2,-6.790992E-2,-4.320399E-2,2.182029E-2,-2.646564E-2,1.6711118E-2,5.3473648E-2,-6.1648495E-2,4.658656E-2,-2.3784965E-2,1.53993815E-2,-2.0536615E-2,2.3576645E-2,5.3674113E-2,7.069863E-2,-5.012372E-2,-2.7385985E-2,2.5162388E-2,5.1868577E-2,-1.0722304E-2,1.4987702E-2,3.9289203E-2,6.1348826E-2,1.5423285E-3,4.9997613E-2,3.2757666E-2,4.970343E-2,2.292389E-2,5.1015537E-2,5.499314E-2,7.389959E-2],"categories":[],"categories_nodes":[],"categories_segments":[],"categories_sizes":[],"default_left":[0,0,0,0,0,0,0,0,0,0,0,0,0,0,0,0,0,0,0,0,0,0,0,0,0,0,0,0,0,0,0,0,0,0,0,0,0,0,0,0,0,0,0,0,0,0,0,0,0,0,0,0,0,0,0,0,0,0,0,0,0,0,0],"id":1,"left_children":[1,3,5,7,9,11,13,15,17,19,21,23,25,27,29,31,33,35,37,39,41,43,45,47,49,51,53,55,57,59,61,-1,-1,-1,-1,-1,-1,-1,-1,-1,-1,-1,-1,-1,-1,-1,-1,-1,-1,-1,-1,-1,-1,-1,-1,-1,-1,-1,-1,-1,-1,-1,-1],"loss_changes":[2.591296E5,3.3942812E4,5.512322E4,9.248281E3,8.788243E3,1.6433018E4,1.714514E4,5.6913438E3,1.2848682E2,3.1433188E3,2.97044E3,3.371412E3,1.9257366E3,1.1779949E4,4.965617E3,6.0025E2,1.9761289E3,5.2514954E1,4.3822876E1,6.2722656E2,9.29092E2,1.830527E3,8.989111E1,1.6499961E3,1.168725E2,1.9186388E3,1.531709E2,3.5730137E3,1.6195977E3,3.31867E3,2.0713047E3,0E0,0E0,0E0,0E0,0E0,0E0,0E0,0E0,0E0,0E0,0E0,0E0,0E0,0E0,0E0,0E0,0E0,0E0,0E0,0E0,0E0,0E0,0E0,0E0,0E0,0E0,0E0,0E0,0E0,0E0,0E0,0E0],"parents":[2147483647,0,0,1,1,2,2,3,3,4,4,5,5,6,6,7,7,8,8,9,9,10,10,11,11,12,12,13,13,14,14,15,15,16,16,17,17,18,18,19,19,20,20,21,21,22,22,23,23,24,24,25,25,26,26,27,27,28,28,29,29,30,30],"right_children":[2,4,6,8,10,12,14,16,18,20,22,24,26,28,30,32,34,36,38,40,42,44,46,48,50,52,54,56,58,60,62,-1,-1,-1,-1,-1,-1,-1,-1,-1,-1,-1,-1,-1,-1,-1,-1,-1,-1,-1,-1,-1,-1,-1,-1,-1,-1,-1,-1,-1,-1,-1,-1],"split_conditions":[9.563248E-2,1.2296056E0,2.9158384E-1,4.3037896E0,1.1616938E0,9.241743E-1,1.2296056E0,-4.5672876E-1,2.2643425E-1,-7.329094E-1,4.3037896E0,4.3037896E0,4.3037896E0,9.241743E-1,1.1616938E0,2.2569728E0,2.9158384E-1,8.168552E-3,1.1616938E0,4.3037896E0,2.167627E0,-4.5672876E-1,2.167627E0,-6.464378E-1,2.2569728E0,-6.464378E-1,2.2569728E0,4.3037896E0,1.1616938E0,9.241743E-1,4.3037896E0,-8.230912E-2,-2.9154602E-2,-6.790992E-2,-4.320399E-2,2.182029E-2,-2.646564E-2,1.6711118E-2,5.3473648E-2,-6.1648495E-2,4.658656E-2,-2.3784965E-2,1.53993815E-2,-2.0536615E-2,2.3576645E-2,5.3674113E-2,7.069863E-2,-5.012372E-2,-2.7385985E-2,2.5162388E-2,5.1868577E-2,-1.0722304E-2,1.4987702E-2,3.9289203E-2,6.1348826E-2,1.5423285E-3,4.9997613E-2,3.2757666E-2,4.970343E-2,2.292389E-2,5.1015537E-2,5.499314E-2,7.389959E-2],"split_indices":[0,1,1,2,13,0,1,0,5,0,2,2,2,0,13,13,1,5,13,2,1,0,1,1,13,1,13,2,13,0,2,0,0,0,0,0,0,0,0,0,0,0,0,0,0,0,0,0,0,0,0,0,0,0,0,0,0,0,0,0,0,0,0],"split_type":[0,0,0,0,0,0,0,0,0,0,0,0,0,0,0,0,0,0,0,0,0,0,0,0,0,0,0,0,0,0,0,0,0,0,0,0,0,0,0,0,0,0,0,0,0,0,0,0,0,0,0,0,0,0,0,0,0,0,0,0,0,0,0],"sum_hessian":[4.425666E5,1.3334116E5,3.0922544E5,1.0412124E5,2.9219912E4,8.929887E4,2.1992658E5,1.0179532E5,2.3259172E3,1.6156919E4,1.3062993E4,4.2575684E4,4.6723184E4,1.0768372E5,1.1224287E5,6.918904E4,3.2606283E4,1.7411049E3,5.8481244E2,7.257436E3,8.899483E3,9.910119E3,3.152874E3,4.056628E4,2.0094017E3,4.251646E4,4.206722E3,4.7479434E4,6.020428E4,4.294562E4,6.929724E4,6.865236E4,5.3668005E2,1.7617762E4,1.4988522E4,1.6836606E3,5.744421E1,9.863511E1,4.8617737E2,7.121704E3,1.357319E2,6.9680415E3,1.9314417E3,3.8360444E3,6.0740747E3,1.5748567E3,1.5780172E3,1.0919456E4,2.9646826E4,1.4341141E3,5.752876E2,9.282721E3,3.323374E4,3.151743E3,1.0549792E3,4.330959E4,4.1698423E3,3.7649215E4,2.2555068E4,1.8389025E4,2.4556598E4,4.864784E4,2.0649404E4],"tree_param":{"num_deleted":"0","num_feature":"15","num_nodes":"63","size_leaf_vector":"1"}},{"base_weights":[1.20227814E-4,-1.11114E0,4.783235E-1,-1.203419E0,8.9754504E-1,1.8369412E-1,9.0787816E-1,-1.3282883E0,-2.4004604E-1,6.915814E-1,1.2671081E0,-2.1477441E-1,5.262286E-1,9.9630594E-1,2.503643E-1,-1.5231788E0,-9.418873E-1,-9.1243845E-1,1.2848441E-1,5.3035E-1,1.1104374E0,1.4136697E0,1.1458355E0,1.3868684E-1,-5.993226E-1,8.683055E-1,1.901796E-1,1.1737715E0,7.976087E-1,-9.79494E-2,7.400965E-1,-7.733044E-2,-4.8440468E-2,-5.3470146E-2,-1.1650615E-2,-6.614507E-2,-3.643032E-2,-4.773868E-3,3.137837E-2,1.3066118E-2,3.5582405E-2,6.1392915E-2,4.889473E-2,6.145608E-2,7.2786845E-2,5.286643E-2,6.528147E-2,-1.3074619E-2,1.775891E-2,-5.4654844E-2,-1.7609501E-2,2.9510302E-2,5.035001E-2,-1.4557059E-2,2.0260774E-2,5.3311534E-2,6.9506034E-2,1.9966355E-2,4.6740435E-2,9.5310835E-3,-3.574566E-2,2.9396063E-2,5.9128173E-2],"categories":[],"categories_nodes":[],"categories_segments":[],"categories_sizes":[],"default_left":[0,0,0,0,0,0,0,0,0,0,0,0,0,0,0,0,0,0,0,0,0,0,0,0,0,0,0,0,0,0,0,0,0,0,0,0,0,0,0,0,0,0,0,0,0,0,0,0,0,0,0,0,0,0,0,0,0,0,0,0,0,0,0],"id":2,"left_children":[1,3,5,7,9,11,13,15,17,19,21,23,25,27,29,31,33,35,37,39,41,43,45,47,49,51,53,55,57,59,61,-1,-1,-1,-1,-1,-1,-1,-1,-1,-1,-1,-1,-1,-1,-1,-1,-1,-1,-1,-1,-1,-1,-1,-1,-1,-1,-1,-1,-1,-1,-1,-1],"loss_changes":[2.3464206E5,2.4624828E4,3.906929E4,1.52783125E4,4.4329004E2,2.499284E4,7.3021016E3,8.465609E3,3.6116946E3,2.5260815E2,3.5476074E1,1.1505326E4,1.131907E4,3.9027344E3,2.5399976E3,9.692344E2,3.407461E3,3.884048E2,1.0524869E3,1.3194763E2,1.5003174E1,5.514038E0,1.4846436E1,3.8212524E3,4.946635E3,1.8814961E3,5.1412734E3,1.3590078E3,2.8537734E3,1.5494489E3,4.1600854E2,0E0,0E0,0E0,0E0,0E0,0E0,0E0,0E0,0E0,0E0,0E0,0E0,0E0,0E0,0E0,0E0,0E0,0E0,0E0,0E0,0E0,0E0,0E0,0E0,0E0,0E0,0E0,0E0,0E0,0E0,0E0,0E0],"parents":[2147483647,0,0,1,1,2,2,3,3,4,4,5,5,6,6,7,7,8,8,9,9,10,10,11,11,12,12,13,13,14,14,15,15,16,16,17,17,18,18,19,19,20,20,21,21,22,22,23,23,24,24,25,25,26,26,27,27,28,28,29,29,30,30],"right_children":[2,4,6,8,10,12,14,16,18,20,22,24,26,28,30,32,34,36,38,40,42,44,46,48,50,52,54,56,58,60,62,-1,-1,-1,-1,-1,-1,-1,-1,-1,-1,-1,-1,-1,-1,-1,-1,-1,-1,-1,-1,-1,-1,-1,-1,-1,-1,-1,-1,-1,-1,-1,-1],"split_conditions":[9.563248E-2,4.3037896E0,1.1616938E0,1.5421568E0,1.8180705E0,9.241743E-1,2.5223987E0,-4.5672876E-1,-7.329094E-1,2.291907E0,9.40713E-1,9.40713E-1,9.40713E-1,9.40713E-1,2.2569728E0,2.291907E0,2.291907E0,6.6414736E-2,2.291907E0,-1.1332548E-1,9.40713E-1,-7.329094E-1,2.291907E0,-4.4442195E-1,-4.4442195E-1,-4.4442195E-1,-4.4442195E-1,2.2569728E0,-1.1332548E-1,9.40713E-1,4.3037896E0,-7.733044E-2,-4.8440468E-2,-5.3470146E-2,-1.1650615E-2,-6.614507E-2,-3.643032E-2,-4.773868E-3,3.137837E-2,1.3066118E-2,3.5582405E-2,6.1392915E-2,4.889473E-2,6.145608E-2,7.2786845E-2,5.286643E-2,6.528147E-2,-1.3074619E-2,1.775891E-2,-5.4654844E-2,-1.7609501E-2,2.9510302E-2,5.035001E-2,-1.4557059E-2,2.0260774E-2,5.3311534E-2,6.9506034E-2,1.9966355E-2,4.6740435E-2,9.5310835E-3,-3.574566E-2,2.9396063E-2,5.9128173E-2],"split_indices":[0,2,13,14,14,0,9,0,0,4,7,7,7,7,13,4,4,13,4,14,7,0,4,14,14,14,14,13,14,7,2,0,0,0,0,0,0,0,0,0,0,0,0,0,0,0,0,0,0,0,0,0,0,0,0,0,0,0,0,0,0,0,0],"split_type":[0,0,0,0,0,0,0,0,0,0,0,0,0,0,0,0,0,0,0,0,0,0,0,0,0,0,0,0,0,0,0,0,0,0,0,0,0,0,0,0,0,0,0,0,0,0,0,0,0,0,0,0,0,0,0,0,0,0,0,0,0,0,0],"sum_hessian":[4.4154566E5,1.3284227E5,3.0870338E5,1.2700793E5,5.834343E3,1.8311036E5,1.2559302E5,1.1243419E5,1.4573736E4,3.7482512E3,2.0860913E3,8.4644375E4,9.8465984E4,1.10704125E5,1.48888955E4,7.4736234E4,3.7697953E4,5.159193E3,9.414544E3,2.7080867E3,1.0401647E3,9.397353E2,1.1463561E3,4.4105246E4,4.0539133E4,4.8794574E4,4.967141E4,5.847369E4,5.2230438E4,8.70115E3,6.1877456E3,7.1703945E4,3.032295E3,3.1950111E4,5.7478394E3,1.5939661E3,3.5652268E3,6.4989644E3,2.9155796E3,1.09124E3,1.6168466E3,5.4716376E2,4.930009E2,1.8005493E2,7.5968036E2,7.426389E2,4.0371713E2,1.5483728E4,2.8621518E4,1.3520856E4,2.7018275E4,1.62389E4,3.2555674E4,1.5338488E4,3.433292E4,3.906268E4,1.9411012E4,1.3383376E4,3.8847062E4,5.928784E3,2.772366E3,4.6059683E3,1.5817773E3],"tree_param":{"num_deleted":"0","num_feature":"15","num_nodes":"63","size_leaf_vector":"1"}},{"base_weights":[-9.3789934E-4,-1.0582825E0,4.5401812E-1,-1.301986E0,-1.8893842E-1,-1.4630769E-1,6.993324E-1,-1.4663808E0,-9.64766E-1,-8.595845E-1,1.6367383E-1,2.3178434E-1,-5.6029385E-1,4.3339744E-1,9.557904E-1,-1.4934279E0,-7.0435035E-1,-1.2022406E0,-6.945275E-1,-1.032917E0,-2.0434277E-1,-8.13899E-2,6.884767E-1,-1.8909267E-1,6.1523044E-1,-8.437586E-1,-3.6984652E-2,7.154406E-1,1.1002721E-1,1.1230302E0,7.798425E-1,-7.836919E-2,-6.969568E-2,-3.9424058E-2,-9.622299E-4,-6.251874E-2,-2.9619882E-2,-3.9956357E-2,-4.2584995E-3,-5.6660265E-2,-2.2766966E-2,-1.8553114E-2,2.4745857E-2,-1.4647873E-2,1.4217113E-2,2.568963E-2,4.7962107E-2,-2.9076664E-2,-2.8094188E-3,1.4245476E-2,3.553665E-2,-5.350067E-2,-3.3556398E-2,-1.4045882E-2,7.240051E-3,1.9795563E-2,4.892403E-2,-1.3117798E-2,1.962575E-2,4.7341034E-2,6.3601255E-2,3.2567393E-2,5.2397788E-2],"categories":[],"categories_nodes":[],"categories_segments":[],"categories_sizes":[],"default_left":[0,0,0,0,0,0,0,0,0,0,0,0,0,0,0,0,0,0,0,0,0,0,0,0,0,0,0,0,0,0,0,0,0,0,0,0,0,0,0,0,0,0,0,0,0,0,0,0,0,0,0,0,0,0,0,0,0,0,0,0,0,0,0],"id":3,"left_children":[1,3,5,7,9,11,13,15,17,19,21,23,25,27,29,31,33,35,37,39,41,43,45,47,49,51,53,55,57,59,61,-1,-1,-1,-1,-1,-1,-1,-1,-1,-1,-1,-1,-1,-1,-1,-1,-1,-1,-1,-1,-1,-1,-1,-1,-1,-1,-1,-1,-1,-1,-1,-1],"loss_changes":[2.1179331E5,2.8061266E4,4.5333105E4,5.7336406E3,6.858403E3,1.3977625E4,1.490343E4,1.4322969E3,2.1751406E3,1.1348628E3,2.4447573E3,7.532455E3,6.3231514E3,9.784645E3,3.2725703E3,4.9210938E2,1.3749121E2,5.2899414E2,1.01094385E3,4.572666E2,2.440629E2,1.002789E3,2.857063E2,1.1605388E3,7.702588E2,1.0792227E3,6.642212E2,4.8158945E3,5.25781E3,1.496125E3,1.8670664E3,0E0,0E0,0E0,0E0,0E0,0E0,0E0,0E0,0E0,0E0,0E0,0E0,0E0,0E0,0E0,0E0,0E0,0E0,0E0,0E0,0E0,0E0,0E0,0E0,0E0,0E0,0E0,0E0,0E0,0E0,0E0,0E0],"parents":[2147483647,0,0,1,1,2,2,3,3,4,4,5,5,6,6,7,7,8,8,9,9,10,10,11,11,12,12,13,13,14,14,15,15,16,16,17,17,18,18,19,19,20,20,21,21,22,22,23,23,24,24,25,25,26,26,27,27,28,28,29,29,30,30],"right_children":[2,4,6,8,10,12,14,16,18,20,22,24,26,28,30,32,34,36,38,40,42,44,46,48,50,52,54,56,58,60,62,-1,-1,-1,-1,-1,-1,-1,-1,-1,-1,-1,-1,-1,-1,-1,-1,-1,-1,-1,-1,-1,-1,-1,-1,-1,-1,-1,-1,-1,-1,-1,-1],"split_conditions":[9.563248E-2,1.2296056E0,2.9158384E-1,-4.5672876E-1,-7.329094E-1,9.40713E-1,1.2296056E0,2.1083953E0,2.9158384E-1,2.1083953E0,2.167627E0,9.241743E-1,1.2003549E0,9.40713E-1,9.40713E-1,-1.00909E0,2.291907E0,2.291907E0,2.1083953E0,2.167627E0,2.291907E0,2.1083953E0,2.291907E0,3.718131E-1,-6.464378E-1,6.479937E-1,1.4765356E0,9.241743E-1,9.241743E-1,9.241743E-1,2.167627E0,-7.836919E-2,-6.969568E-2,-3.9424058E-2,-9.622299E-4,-6.251874E-2,-2.9619882E-2,-3.9956357E-2,-4.2584995E-3,-5.6660265E-2,-2.2766966E-2,-1.8553114E-2,2.4745857E-2,-1.4647873E-2,1.4217113E-2,2.568963E-2,4.7962107E-2,-2.9076664E-2,-2.8094188E-3,1.4245476E-2,3.553665E-2,-5.350067E-2,-3.3556398E-2,-1.4045882E-2,7.240051E-3,1.9795563E-2,4.892403E-2,-1.3117798E-2,1.962575E-2,4.7341034E-2,6.3601255E-2,3.2567393E-2,5.2397788E-2],"split_indices":[0,1,1,0,0,7,1,3,1,3,1,0,0,7,7,0,4,4,3,1,4,3,4,0,1,0,0,0,0,0,1,0,0,0,0,0,0,0,0,0,0,0,0,0,0,0,0,0,0,0,0,0,0,0,0,0,0,0,0,0,0,0,0],"split_type":[0,0,0,0,0,0,0,0,0,0,0,0,0,0,0,0,0,0,0,0,0,0,0,0,0,0,0,0,0,0,0,0,0,0,0,0,0,0,0,0,0,0,0,0,0,0,0,0,0,0,0,0,0,0,0,0,0,0,0,0,0,0,0],"sum_hessian":[4.402753E5,1.3245072E5,3.078246E5,1.0345004E5,2.900069E4,8.9297875E4,2.1852672E5,6.954397E4,3.3906062E4,9.993069E3,1.900762E4,4.6672496E4,4.262538E4,1.0728249E5,1.1124423E5,6.7159305E4,2.3846692E3,1.8045217E4,1.5860848E4,7.9021265E3,2.0909426E3,1.2957695E4,6.0499243E3,2.2250486E4,2.442201E4,2.7648307E4,1.4977072E4,5.730229E4,4.9980203E4,5.703073E4,5.4213496E4,3.8518645E4,2.8640658E4,2.1237253E3,2.6094397E2,1.672415E4,1.3210659E3,1.3536858E4,2.3239897E3,6.73221E3,1.1699165E3,1.6887706E3,4.021721E2,8.209113E3,4.7485825E3,3.6791929E3,2.3707314E3,5.6281826E3,1.6622305E4,5.4781973E3,1.8943812E4,1.196345E4,1.5684856E4,6.395111E3,8.581961E3,2.5874094E4,3.1428195E4,2.1559693E4,2.842051E4,2.6132436E4,3.0898293E4,3.6651504E4,1.7561992E4],"tree_param":{"num_deleted":"0","num_feature":"15","num_nodes":"63","size_leaf_vector":"1"}},{"base_weights":[-1.8751019E-3,-1.0109787E0,4.3127897E-1,-1.2484261E0,-1.7250657E-1,-1.385743E-1,6.651554E-1,-1.4067384E0,-9.2531157E-1,-8.1862E-1,1.6561379E-1,-5.3382844E-1,2.2036651E-1,4.1168335E-1,9.101325E-1,-1.4258676E0,-8.633734E-1,-1.1616201E0,-6.588909E-1,-9.812085E-1,-1.7868398E-1,-7.0130154E-2,6.688974E-1,-1.866539E-1,-9.1779137E-1,5.820653E-1,-1.7523162E-1,6.791538E-1,1.03743464E-1,7.2363245E-1,1.0644565E0,-7.504674E-2,-6.620022E-2,-2.4286624E-2,-5.559037E-2,-6.0438145E-2,-2.828438E-2,-3.8588375E-2,-8.559097E-3,-6.2488943E-2,-3.9095193E-2,-1.9128395E-2,3.2733887E-2,-1.28353685E-2,1.772937E-2,2.5488645E-2,4.596108E-2,-1.4196239E-2,1.5655113E-2,-4.957888E-2,-1.6038371E-2,1.3084024E-2,3.371525E-2,-1.9130612E-2,7.7149817E-3,1.8579617E-2,4.6595808E-2,-1.2293187E-2,1.844587E-2,2.9221816E-2,4.987664E-2,6.0726292E-2,4.5517415E-2],"categories":[],"categories_nodes":[],"categories_segments":[],"categories_sizes":[],"default_left":[0,0,0,0,0,0,0,0,0,0,0,0,0,0,0,0,0,0,0,0,0,0,0,0,0,0,0,0,0,0,0,0,0,0,0,0,0,0,0,0,0,0,0,0,0,0,0,0,0,0,0,0,0,0,0,0,0,0,0,0,0,0,0],"id":4,"left_children":[1,3,5,7,9,11,13,15,17,19,21,23,25,27,29,31,33,35,37,39,41,43,45,47,49,51,53,55,57,59,61,-1,-1,-1,-1,-1,-1,-1,-1,-1,-1,-1,-1,-1,-1,-1,-1,-1,-1,-1,-1,-1,-1,-1,-1,-1,-1,-1,-1,-1,-1,-1,-1],"loss_changes":[1.9190298E5,2.6251594E4,4.0939914E4,5.2550312E3,6.3576626E3,1.268178E4,1.3523633E4,7.1559375E2,2.1267852E3,1.0400205E3,2.2667305E3,5.670787E3,6.7032314E3,8.816576E3,3.1868594E3,5.0742188E2,2.1973425E2,5.024082E2,8.744624E2,4.257295E2,3.445993E2,1.0311388E3,2.4228394E2,1.0862014E3,8.8955273E2,7.2302344E2,1.5291625E3,4.4530703E3,4.6130693E3,1.911498E3,1.4004375E3,0E0,0E0,0E0,0E0,0E0,0E0,0E0,0E0,0E0,0E0,0E0,0E0,0E0,0E0,0E0,0E0,0E0,0E0,0E0,0E0,0E0,0E0,0E0,0E0,0E0,0E0,0E0,0E0,0E0,0E0,0E0,0E0],"parents":[2147483647,0,0,1,1,2,2,3,3,4,4,5,5,6,6,7,7,8,8,9,9,10,10,11,11,12,12,13,13,14,14,15,15,16,16,17,17,18,18,19,19,20,20,21,21,22,22,23,23,24,24,25,25,26,26,27,27,28,28,29,29,30,30],"right_children":[2,4,6,8,10,12,14,16,18,20,22,24,26,28,30,32,34,36,38,40,42,44,46,48,50,52,54,56,58,60,62,-1,-1,-1,-1,-1,-1,-1,-1,-1,-1,-1,-1,-1,-1,-1,-1,-1,-1,-1,-1,-1,-1,-1,-1,-1,-1,-1,-1,-1,-1,-1,-1],"split_conditions":[9.563248E-2,1.2296056E0,2.9158384E-1,-4.5672876E-1,-7.329094E-1,9.241743E-1,1.2296056E0,2.291907E0,2.9158384E-1,2.167627E0,2.167627E0,9.40713E-1,9.40713E-1,9.40713E-1,9.241743E-1,-1.00909E0,4.498929E-2,2.291907E0,2.291907E0,-1.2852706E0,2.291907E0,2.291907E0,2.291907E0,2.291907E0,2.291907E0,-6.464378E-1,1.4765356E0,9.241743E-1,9.241743E-1,2.167627E0,9.40713E-1,-7.504674E-2,-6.620022E-2,-2.4286624E-2,-5.559037E-2,-6.0438145E-2,-2.828438E-2,-3.8588375E-2,-8.559097E-3,-6.2488943E-2,-3.9095193E-2,-1.9128395E-2,3.2733887E-2,-1.28353685E-2,1.772937E-2,2.5488645E-2,4.596108E-2,-1.4196239E-2,1.5655113E-2,-4.957888E-2,-1.6038371E-2,1.3084024E-2,3.371525E-2,-1.9130612E-2,7.7149817E-3,1.8579617E-2,4.6595808E-2,-1.2293187E-2,1.844587E-2,2.9221816E-2,4.987664E-2,6.0726292E-2,4.5517415E-2],"split_indices":[0,1,1,0,0,0,1,4,1,1,1,7,7,7,0,0,11,4,4,0,4,4,4,4,4,1,0,0,0,1,7,0,0,0,0,0,0,0,0,0,0,0,0,0,0,0,0,0,0,0,0,0,0,0,0,0,0,0,0,0,0,0,0],"split_type":[0,0,0,0,0,0,0,0,0,0,0,0,0,0,0,0,0,0,0,0,0,0,0,0,0,0,0,0,0,0,0,0,0,0,0,0,0,0,0,0,0,0,0,0,0,0,0,0,0,0,0,0,0,0,0,0,0,0,0,0,0,0,0],"sum_hessian":[4.390375E5,1.3185598E5,3.071815E5,1.0275597E5,2.9100014E4,8.938654E4,2.1779497E5,6.896348E4,3.3792492E4,9.996433E3,1.9103582E4,4.2541125E4,4.6845414E4,1.07042875E5,1.107521E5,6.661661E4,2.3468694E3,1.7906502E4,1.5885992E4,7.970767E3,2.0256654E3,1.3010276E4,6.093305E3,2.2341607E4,2.0199518E4,2.4470945E4,2.2374467E4,5.7285035E4,4.9757844E4,5.0150746E4,6.060135E4,3.8344926E4,2.8271684E4,9.324385E2,1.414431E3,1.6592854E4,1.3136476E3,1.2899838E4,2.9861536E3,3.3931294E3,4.5776377E3,1.6279296E3,3.977359E2,9.039602E3,3.9706755E3,3.7271133E3,2.3661921E3,1.8701951E4,3.6396543E3,1.7977072E4,2.2224468E3,5.4711924E3,1.8999754E4,1.3732297E4,8.642169E3,2.5842424E4,3.144261E4,2.1462113E4,2.829573E4,3.3254125E4,1.6896621E4,3.0699514E4,2.990184E4],"tree_param":{"num_deleted":"0","num_feature":"15","num_nodes":"63","size_leaf_vector":"1"}},{"base_weights":[2.5418535E-4,-3.054355E-1,6.5478754E-1,-3.9047706E-1,8.6721766E-1,2.9939452E-1,9.13544E-1,-6.7163E-1,-1.0060112E-1,7.470333E-1,1.0866952E0,-9.654994E-2,4.6601167E-1,7.748757E-1,1.2576315E0,-4.6641067E-1,-1.0411503E0,-4.97336E-1,8.554742E-2,9.108775E-1,5.6168824E-1,1.1878539E0,9.526879E-1,9.7082704E-2,-3.6928013E-1,5.081128E-1,-7.6482713E-1,8.527039E-1,2.1211956E-1,1.3450574E0,1.1694844E0,-4.2260356E-2,-1.4966226E-2,-5.522653E-2,-4.271793E-3,-1.3038987E-2,-4.244278E-2,1.122682E-2,-3.3155028E-2,3.754441E-2,4.945168E-2,1.31022995E-2,3.4287628E-2,6.190873E-2,4.71505E-2,4.95585E-2,3.1247322E-2,1.5723113E-2,-6.7704394E-3,-2.3211299E-2,1.1150704E-3,3.4891244E-2,1.658779E-2,-2.6398579E-2,-6.0766984E-2,5.073315E-2,3.4607906E-2,-7.008083E-3,2.8222758E-2,6.395798E-2,7.139405E-2,5.4582037E-2,6.359888E-2],"categories":[],"categories_nodes":[],"categories_segments":[],"categories_sizes":[],"default_left":[0,0,0,0,0,0,0,0,0,0,0,0,0,0,0,0,0,0,0,0,0,0,0,0,0,0,0,0,0,0,0,0,0,0,0,0,0,0,0,0,0,0,0,0,0,0,0,0,0,0,0,0,0,0,0,0,0,0,0,0,0,0,0],"id":5,"left_children":[1,3,5,7,9,11,13,15,17,19,21,23,25,27,29,31,33,35,37,39,41,43,45,47,49,51,53,55,57,59,61,-1,-1,-1,-1,-1,-1,-1,-1,-1,-1,-1,-1,-1,-1,-1,-1,-1,-1,-1,-1,-1,-1,-1,-1,-1,-1,-1,-1,-1,-1,-1,-1],"loss_changes":[8.74519E4,2.9711326E4,1.2795473E4,2.2639422E4,5.3058203E2,3.8676968E3,3.8408984E3,1.069307E4,1.0100942E4,3.9489258E2,9.546875E1,9.1704926E2,2.138621E3,2.5135352E3,1.7664844E2,5.7381016E3,3.0498086E3,3.6319258E3,9.686957E3,8.565527E1,2.270343E2,4.8813477E1,3.8104248E1,5.1329694E2,2.680686E2,1.3346621E3,1.45026E2,1.3103008E3,8.6574133E2,6.1509766E1,9.055176E1,0E0,0E0,0E0,0E0,0E0,0E0,0E0,0E0,0E0,0E0,0E0,0E0,0E0,0E0,0E0,0E0,0E0,0E0,0E0,0E0,0E0,0E0,0E0,0E0,0E0,0E0,0E0,0E0,0E0,0E0,0E0,0E0],"parents":[2147483647,0,0,1,1,2,2,3,3,4,4,5,5,6,6,7,7,8,8,9,9,10,10,11,11,12,12,13,13,14,14,15,15,16,16,17,17,18,18,19,19,20,20,21,21,22,22,23,23,24,24,25,25,26,26,27,27,28,28,29,29,30,30],"right_children":[2,4,6,8,10,12,14,16,18,20,22,24,26,28,30,32,34,36,38,40,42,44,46,48,50,52,54,56,58,60,62,-1,-1,-1,-1,-1,-1,-1,-1,-1,-1,-1,-1,-1,-1,-1,-1,-1,-1,-1,-1,-1,-1,-1,-1,-1,-1,-1,-1,-1,-1,-1,-1],"split_conditions":[1.2296056E0,4.3037896E0,1.1616938E0,2.9158384E-1,2.2569728E0,6.6414736E-2,4.3037896E0,-4.5458102E-1,6.6414736E-2,9.40713E-1,9.40713E-1,-2.2692558E-1,2.5223987E0,2.5223987E0,9.40713E-1,-6.464378E-1,2.1083953E0,-4.5458102E-1,2.5223987E0,-4.9960467E-1,-4.4442195E-1,2.5223987E0,2.5223987E0,9.40713E-1,2.167627E0,9.40713E-1,9.40713E-1,9.40713E-1,2.2569728E0,2.167627E0,2.167627E0,-4.2260356E-2,-1.4966226E-2,-5.522653E-2,-4.271793E-3,-1.3038987E-2,-4.244278E-2,1.122682E-2,-3.3155028E-2,3.754441E-2,4.945168E-2,1.31022995E-2,3.4287628E-2,6.190873E-2,4.71505E-2,4.95585E-2,3.1247322E-2,1.5723113E-2,-6.7704394E-3,-2.3211299E-2,1.1150704E-3,3.4891244E-2,1.658779E-2,-2.6398579E-2,-6.0766984E-2,5.073315E-2,3.4607906E-2,-7.008083E-3,2.8222758E-2,6.395798E-2,7.139405E-2,5.4582037E-2,6.359888E-2],"split_indices":[1,2,13,1,13,13,2,12,13,7,7,12,9,9,7,1,3,12,9,14,14,9,9,7,1,7,7,7,13,1,1,0,0,0,0,0,0,0,0,0,0,0,0,0,0,0,0,0,0,0,0,0,0,0,0,0,0,0,0,0,0,0,0],"split_type":[0,0,0,0,0,0,0,0,0,0,0,0,0,0,0,0,0,0,0,0,0,0,0,0,0,0,0,0,0,0,0,0,0,0,0,0,0,0,0,0,0,0,0,0,0,0,0,0,0,0,0,0,0,0,0,0,0,0,0,0,0,0,0],"sum_hessian":[4.3707372E5,2.9793044E5,1.3914328E5,2.777859E5,2.0144545E4,5.8625434E4,8.051784E4,1.41014E5,1.3677189E5,1.301954E4,7.125005E3,1.736356E4,4.1261875E4,5.739197E4,2.3125877E4,9.0664305E4,5.034969E4,4.367868E4,9.309322E4,6.9085215E3,6.1110186E3,4.0556404E3,3.0693645E3,1.0154632E4,7.208929E3,3.9897746E4,1.3641255E3,5.041864E4,6.9733296E3,1.1603292E4,1.1522586E4,2.7749688E4,6.291462E4,4.7218168E4,3.1315269E3,2.6109768E4,1.756891E4,7.8516984E4,1.4576237E4,2.2707642E3,4.6377573E3,1.7902614E3,4.320757E3,3.3608567E3,6.947836E2,2.74503E3,3.2433453E2,5.24769E3,4.9069424E3,5.801957E3,1.4069723E3,1.9219672E4,2.0678076E4,8.95494E2,4.6863138E2,2.5096203E4,2.5322436E4,3.487235E3,3.4860945E3,6.471089E3,5.132203E3,6.555408E3,4.9671777E3],"tree_param":{"num_deleted":"0","num_feature":"15","num_nodes":"63","size_leaf_vector":"1"}},{"base_weights":[-1.4511889E-4,-9.550273E-1,4.0563667E-1,-1.1741849E0,-1.884368E-1,-1.1361539E-1,6.1845803E-1,-1.2133125E0,5.076282E-1,-3.5978872E-1,1.0554726E0,-4.809037E-1,2.1961308E-1,3.8783005E-1,8.602709E-1,-1.3062483E0,-7.8280205E-1,3.8776028E-1,8.768661E-1,-7.7600855E-1,8.887222E-2,9.14215E-1,1.2084229E0,-5.335513E-1,5.914287E-1,-3.2209978E-2,3.5133004E-1,7.606977E-2,6.385469E-1,7.4843097E-1,1.1545445E0,-6.6568494E-2,-3.3996712E-2,-5.0386008E-2,-2.6759198E-2,3.0737033E-2,1.1592392E-2,7.129501E-2,3.984884E-2,-4.6939734E-2,-1.2386868E-2,-4.7236043E-3,2.5871126E-2,4.3709964E-2,5.227807E-2,6.300652E-2,5.6815464E-2,-4.1225675E-2,-2.0805672E-2,2.3564378E-2,4.448406E-2,-2.1886505E-2,4.088472E-3,1.4985571E-2,4.0485874E-2,-4.1338676E-3,1.7260201E-2,2.5805652E-2,4.132723E-2,2.809518E-2,4.5460936E-2,5.0146263E-2,6.1339792E-2],"categories":[],"categories_nodes":[],"categories_segments":[],"categories_sizes":[],"default_left":[0,0,0,0,0,0,0,0,0,0,0,0,0,0,0,0,0,0,0,0,0,0,0,0,0,0,0,0,0,0,0,0,0,0,0,0,0,0,0,0,0,0,0,0,0,0,0,0,0,0,0,0,0,0,0,0,0,0,0,0,0,0,0],"id":6,"left_children":[1,3,5,7,9,11,13,15,17,19,21,23,25,27,29,31,33,35,37,39,41,43,45,47,49,51,53,55,57,59,61,-1,-1,-1,-1,-1,-1,-1,-1,-1,-1,-1,-1,-1,-1,-1,-1,-1,-1,-1,-1,-1,-1,-1,-1,-1,-1,-1,-1,-1,-1,-1,-1],"loss_changes":[1.6886356E5,2.183489E4,3.3797684E4,6.6516875E3,6.159541E3,1.0882049E4,1.2097508E4,3.9509219E3,1.0139996E2,4.743033E3,7.4489746E1,2.388079E3,1.5462961E3,8.678756E3,3.4843203E3,1.2772969E3,9.7630176E2,6.133313E1,2.3538666E1,1.1328154E3,9.605025E2,8.667847E0,4.820801E0,1.3772432E3,7.052167E1,7.400617E2,7.23989E2,2.114584E3,1.4160996E3,2.3008945E3,3.1821875E2,0E0,0E0,0E0,0E0,0E0,0E0,0E0,0E0,0E0,0E0,0E0,0E0,0E0,0E0,0E0,0E0,0E0,0E0,0E0,0E0,0E0,0E0,0E0,0E0,0E0,0E0,0E0,0E0,0E0,0E0,0E0,0E0],"parents":[2147483647,0,0,1,1,2,2,3,3,4,4,5,5,6,6,7,7,8,8,9,9,10,10,11,11,12,12,13,13,14,14,15,15,16,16,17,17,18,18,19,19,20,20,21,21,22,22,23,23,24,24,25,25,26,26,27,27,28,28,29,29,30,30],"right_children":[2,4,6,8,10,12,14,16,18,20,22,24,26,28,30,32,34,36,38,40,42,44,46,48,50,52,54,56,58,60,62,-1,-1,-1,-1,-1,-1,-1,-1,-1,-1,-1,-1,-1,-1,-1,-1,-1,-1,-1,-1,-1,-1,-1,-1,-1,-1,-1,-1,-1,-1,-1,-1],"split_conditions":[9.563248E-2,1.2296056E0,2.9158384E-1,4.3037896E0,4.3037896E0,9.241743E-1,1.1616938E0,-1.8054813E-1,2.1083953E0,-4.5672876E-1,2.167627E0,4.3037896E0,1.2003549E0,9.241743E-1,4.3037896E0,2.1083953E0,2.9158384E-1,4.498929E-2,-6.464378E-1,2.1083953E0,2.167627E0,2.627357E0,1.4039569E-1,-5.583575E-1,2.2569728E0,-6.464378E-1,4.3037896E0,1.2296056E0,1.2296056E0,9.241743E-1,1.2296056E0,-6.6568494E-2,-3.3996712E-2,-5.0386008E-2,-2.6759198E-2,3.0737033E-2,1.1592392E-2,7.129501E-2,3.984884E-2,-4.6939734E-2,-1.2386868E-2,-4.7236043E-3,2.5871126E-2,4.3709964E-2,5.227807E-2,6.300652E-2,5.6815464E-2,-4.1225675E-2,-2.0805672E-2,2.3564378E-2,4.448406E-2,-2.1886505E-2,4.088472E-3,1.4985571E-2,4.0485874E-2,-4.1338676E-3,1.7260201E-2,2.5805652E-2,4.132723E-2,2.809518E-2,4.5460936E-2,5.0146263E-2,6.1339792E-2],"split_indices":[0,1,1,2,2,0,13,0,3,0,1,2,0,0,2,3,1,11,1,3,1,5,10,10,13,1,2,1,1,0,1,0,0,0,0,0,0,0,0,0,0,0,0,0,0,0,0,0,0,0,0,0,0,0,0,0,0,0,0,0,0,0,0],"split_type":[0,0,0,0,0,0,0,0,0,0,0,0,0,0,0,0,0,0,0,0,0,0,0,0,0,0,0,0,0,0,0,0,0,0,0,0,0,0,0,0,0,0,0,0,0,0,0,0,0,0,0,0,0,0,0,0,0,0,0,0,0,0,0],"sum_hessian":[4.3580444E5,1.29966664E5,3.0583778E5,1.0107125E5,2.889541E4,8.891035E4,2.1692742E5,9.8773555E4,2.2976997E3,2.5397541E4,3.4978694E3,4.2293508E4,4.6616844E4,1.110329E5,1.05894516E5,8.123504E4,1.7538516E4,1.7361372E3,5.6156244E2,1.3174714E4,1.2222827E4,1.822069E3,1.6758004E3,4.0314707E4,1.9787996E3,1.6009617E4,3.0607227E4,4.9492047E4,6.1540855E4,7.673471E4,2.9159805E4,7.810125E4,3.133783E3,9.188913E3,8.349604E3,7.057498E2,1.0303873E3,6.919257E1,4.9236984E2,1.0070672E4,3.1040425E3,8.561001E3,3.661826E3,1.4024552E3,4.196138E2,9.663935E2,7.094069E2,1.1590997E4,2.872371E4,1.4124293E3,5.663703E2,3.511924E3,1.2497692E4,2.7510898E4,3.096327E3,3.113057E4,1.8361475E4,3.727148E4,2.4269375E4,3.5526016E4,4.1208695E4,9.415744E3,1.974406E4],"tree_param":{"num_deleted":"0","num_feature":"15","num_nodes":"63","size_leaf_vector":"1"}},{"base_weights":[-9.805115E-4,-9.183941E-1,3.8700515E-1,-1.129633E0,-1.8492876E-1,-1.0040362E-1,5.879376E-1,-1.2779402E0,-8.2921064E-1,-7.7539986E-1,1.2111339E-1,2.4061643E-1,-4.788482E-1,3.682905E-1,8.032092E-1,-1.3019001E0,-6.209633E-1,-8.991504E-1,-1.4761432E-1,-9.3154305E-1,-1.67701E-1,-9.2102736E-2,5.758225E-1,-1.2428504E-1,5.710051E-1,-8.2352173E-1,-1.695328E-1,6.220316E-1,7.846167E-2,6.274739E-1,9.4906116E-1,-7.017209E-2,-6.1993796E-2,-4.322497E-2,-1.9407146E-2,-5.3298887E-2,-3.450721E-2,-2.0255549E-2,2.844069E-3,-5.10885E-2,-2.2324456E-2,-3.3013016E-2,-4.6191333E-4,-1.3793449E-2,1.1255407E-2,2.0255344E-2,3.7398625E-2,-2.5885677E-2,3.3559534E-4,1.9266441E-2,3.3876147E-2,-4.3670412E-2,-1.5500434E-2,-1.728899E-2,5.7754363E-3,1.7030384E-2,4.2722266E-2,-7.6570967E-3,2.2022694E-2,2.472235E-2,4.4516936E-2,5.464236E-2,4.013963E-2],"categories":[],"categories_nodes":[],"categories_segments":[],"categories_sizes":[],"default_left":[0,0,0,0,0,0,0,0,0,0,0,0,0,0,0,0,0,0,0,0,0,0,0,0,0,0,0,0,0,0,0,0,0,0,0,0,0,0,0,0,0,0,0,0,0,0,0,0,0,0,0,0,0,0,0,0,0,0,0,0,0,0,0],"id":7,"left_children":[1,3,5,7,9,11,13,15,17,19,21,23,25,27,29,31,33,35,37,39,41,43,45,47,49,51,53,55,57,59,61,-1,-1,-1,-1,-1,-1,-1,-1,-1,-1,-1,-1,-1,-1,-1,-1,-1,-1,-1,-1,-1,-1,-1,-1,-1,-1,-1,-1,-1,-1,-1,-1],"loss_changes":[1.5426352E5,1.995739E4,2.9829672E4,4.454797E3,5.2052114E3,1.1474698E4,1.01975E4,1.053125E3,1.5756797E3,9.328677E2,1.83941E3,5.6384526E3,4.492877E3,7.8507266E3,2.7911719E3,4.0508594E2,1.3335162E2,1.0445957E3,1.6207404E2,3.4190137E2,1.5697592E2,7.530031E2,1.7768677E2,1.1454E3,4.8519043E2,5.1033984E2,1.1159282E3,3.722668E3,4.178084E3,1.7270625E3,1.2508867E3,0E0,0E0,0E0,0E0,0E0,0E0,0E0,0E0,0E0,0E0,0E0,0E0,0E0,0E0,0E0,0E0,0E0,0E0,0E0,0E0,0E0,0E0,0E0,0E0,0E0,0E0,0E0,0E0,0E0,0E0,0E0,0E0],"parents":[2147483647,0,0,1,1,2,2,3,3,4,4,5,5,6,6,7,7,8,8,9,9,10,10,11,11,12,12,13,13,14,14,15,15,16,16,17,17,18,18,19,19,20,20,21,21,22,22,23,23,24,24,25,25,26,26,27,27,28,28,29,29,30,30],"right_children":[2,4,6,8,10,12,14,16,18,20,22,24,26,28,30,32,34,36,38,40,42,44,46,48,50,52,54,56,58,60,62,-1,-1,-1,-1,-1,-1,-1,-1,-1,-1,-1,-1,-1,-1,-1,-1,-1,-1,-1,-1,-1,-1,-1,-1,-1,-1,-1,-1,-1,-1,-1,-1],"split_conditions":[9.563248E-2,1.2296056E0,2.9158384E-1,-4.5672876E-1,-7.329094E-1,9.40713E-1,1.2296056E0,2.1083953E0,2.1083953E0,2.167627E0,2.167627E0,9.241743E-1,9.241743E-1,9.40713E-1,9.241743E-1,-1.2852706E0,1.2027092E0,2.9158384E-1,1.2027092E0,2.1083953E0,6.6296566E-1,2.1083953E0,-1.8054813E-1,3.718131E-1,1.2003549E0,2.1083953E0,1.4765356E0,9.241743E-1,1.2003549E0,2.167627E0,9.40713E-1,-7.017209E-2,-6.1993796E-2,-4.322497E-2,-1.9407146E-2,-5.3298887E-2,-3.450721E-2,-2.0255549E-2,2.844069E-3,-5.10885E-2,-2.2324456E-2,-3.3013016E-2,-4.6191333E-4,-1.3793449E-2,1.1255407E-2,2.0255344E-2,3.7398625E-2,-2.5885677E-2,3.3559534E-4,1.9266441E-2,3.3876147E-2,-4.3670412E-2,-1.5500434E-2,-1.728899E-2,5.7754363E-3,1.7030384E-2,4.2722266E-2,-7.6570967E-3,2.2022694E-2,2.472235E-2,4.4516936E-2,5.464236E-2,4.013963E-2],"split_indices":[0,1,1,0,0,7,1,3,3,1,1,0,0,7,0,0,6,1,6,3,5,3,0,0,0,3,0,0,0,1,7,0,0,0,0,0,0,0,0,0,0,0,0,0,0,0,0,0,0,0,0,0,0,0,0,0,0,0,0,0,0,0,0],"split_type":[0,0,0,0,0,0,0,0,0,0,0,0,0,0,0,0,0,0,0,0,0,0,0,0,0,0,0,0,0,0,0,0,0,0,0,0,0,0,0,0,0,0,0,0,0,0,0,0,0,0,0,0,0,0,0,0,0,0,0,0,0,0,0],"sum_hessian":[4.3339153E5,1.2881053E5,3.04581E5,1.0000767E5,2.8802857E4,8.8909836E4,2.1567116E5,6.695248E4,3.30552E4,9.83189E3,1.8970969E4,4.676753E4,4.214231E4,1.0675203E5,1.0891912E5,6.4595684E4,2.3567925E3,2.9978713E4,3.076485E3,7.8216484E3,2.0102413E3,1.2915569E4,6.055399E3,2.222334E4,2.454419E4,1.9931148E4,2.221116E4,5.6919055E4,4.983298E4,4.9401336E4,5.951778E4,2.4486559E4,4.0109125E4,1.1505619E3,1.2062306E3,1.6669291E4,1.3309422E4,1.361337E3,1.715148E3,6.59397E3,1.2276783E3,4.8853427E2,1.5217072E3,8.178019E3,4.73755E3,3.0420498E3,3.0133494E3,5.550461E3,1.6672879E4,8.949139E3,1.5595052E4,1.8165695E4,1.765452E3,1.372469E4,8.48647E3,2.574615E4,3.1172904E4,3.038997E4,1.9443008E4,3.2803492E4,1.6597848E4,3.001032E4,2.9507463E4],"tree_param":{"num_deleted":"0","num_feature":"15","num_nodes":"63","size_leaf_vector":"1"}},{"base_weights":[7.336396E-4,-2.8998977E-1,5.383292E-1,-5.7310486E-1,-6.518923E-2,7.360394E-1,-3.1209508E-1,-3.8319728E-1,-8.596702E-1,5.104907E-2,-1.0971849E0,6.0437113E-1,1.0200554E0,-6.4057785E-1,4.4608402E-1,-8.30584E-1,-2.851892E-1,-9.484307E-1,-3.8396135E-1,-2.5153774E-1,1.6366345E-1,-1.2611023E0,-9.882045E-1,5.4036194E-1,8.973734E-1,8.961772E-1,1.135722E0,-9.1746473E-1,-5.0239533E-1,2.7771586E-1,9.4365335E-1,-5.4749526E-2,-3.6696967E-2,-1.2572358E-2,-3.595874E-2,-5.484389E-2,-4.27687E-2,-3.536297E-2,-1.6263133E-2,-7.892185E-3,-3.3266407E-2,1.670583E-2,-3.2632982E-3,-6.39853E-2,-3.3155322E-2,-4.2617425E-2,-5.761121E-2,1.2819359E-2,2.8691206E-2,3.687028E-2,4.9674824E-2,3.8051914E-2,4.771392E-2,5.4456342E-2,6.052954E-2,-4.1406404E-2,-5.713886E-2,-1.0696343E-2,-3.5448942E-2,9.7600175E-3,3.6635786E-2,3.5094704E-2,5.435676E-2],"categories":[],"categories_nodes":[],"categories_segments":[],"categories_sizes":[],"default_left":[0,0,0,0,0,0,0,0,0,0,0,0,0,0,0,0,0,0,0,0,0,0,0,0,0,0,0,0,0,0,0,0,0,0,0,0,0,0,0,0,0,0,0,0,0,0,0,0,0,0,0,0,0,0,0,0,0,0,0,0,0,0,0],"id":8,"left_children":[1,3,5,7,9,11,13,15,17,19,21,23,25,27,29,31,33,35,37,39,41,43,45,47,49,51,53,55,57,59,61,-1,-1,-1,-1,-1,-1,-1,-1,-1,-1,-1,-1,-1,-1,-1,-1,-1,-1,-1,-1,-1,-1,-1,-1,-1,-1,-1,-1,-1,-1,-1,-1],"loss_changes":[6.740322E4,1.7814043E4,2.5450484E4,6.741453E3,1.87157E4,4.592117E3,7.1113496E3,3.2667646E3,2.0844414E3,4.778325E3,2.8089844E2,1.5733262E3,5.563633E2,7.617793E2,7.2285974E2,3.4132422E2,8.948418E2,5.738633E2,1.4714038E2,1.4744473E3,3.9877786E3,6.92793E1,2.1051758E2,6.5430664E2,2.3058887E2,1.4679199E2,6.884375E1,1.3253076E2,7.919563E2,2.4204932E2,7.492432E1,0E0,0E0,0E0,0E0,0E0,0E0,0E0,0E0,0E0,0E0,0E0,0E0,0E0,0E0,0E0,0E0,0E0,0E0,0E0,0E0,0E0,0E0,0E0,0E0,0E0,0E0,0E0,0E0,0E0,0E0,0E0,0E0],"parents":[2147483647,0,0,1,1,2,2,3,3,4,4,5,5,6,6,7,7,8,8,9,9,10,10,11,11,12,12,13,13,14,14,15,15,16,16,17,17,18,18,19,19,20,20,21,21,22,22,23,23,24,24,25,25,26,26,27,27,28,28,29,29,30,30],"right_children":[2,4,6,8,10,12,14,16,18,20,22,24,26,28,30,32,34,36,38,40,42,44,46,48,50,52,54,56,58,60,62,-1,-1,-1,-1,-1,-1,-1,-1,-1,-1,-1,-1,-1,-1,-1,-1,-1,-1,-1,-1,-1,-1,-1,-1,-1,-1,-1,-1,-1,-1,-1,-1],"split_conditions":[1.1616938E0,6.6414736E-2,2.5223987E0,-4.5458102E-1,2.5223987E0,2.2569728E0,2.2569728E0,-7.755184E-1,5.538328E-1,-4.4442195E-1,-3.9421073E-1,4.3037896E0,4.3037896E0,-4.4442195E-1,4.3037896E0,-8.18884E-1,1.2577984E0,-3.3405647E-1,-8.8514507E-1,-4.5458102E-1,-4.5458102E-1,1.6451613E0,-3.407533E-1,-4.4442195E-1,-1.6850822E-1,1.6258824E-1,1.5973396E0,-4.5458102E-1,-4.5458102E-1,3.352252E0,1.074055E-1,-5.4749526E-2,-3.6696967E-2,-1.2572358E-2,-3.595874E-2,-5.484389E-2,-4.27687E-2,-3.536297E-2,-1.6263133E-2,-7.892185E-3,-3.3266407E-2,1.670583E-2,-3.2632982E-3,-6.39853E-2,-3.3155322E-2,-4.2617425E-2,-5.761121E-2,1.2819359E-2,2.8691206E-2,3.687028E-2,4.9674824E-2,3.8051914E-2,4.771392E-2,5.4456342E-2,6.052954E-2,-4.1406404E-2,-5.713886E-2,-1.0696343E-2,-3.5448942E-2,9.7600175E-3,3.6635786E-2,3.5094704E-2,5.435676E-2],"split_indices":[13,13,9,12,9,13,13,14,5,14,10,2,2,14,2,10,10,14,10,12,12,5,12,14,14,14,14,12,12,13,14,0,0,0,0,0,0,0,0,0,0,0,0,0,0,0,0,0,0,0,0,0,0,0,0,0,0,0,0,0,0,0,0],"split_type":[0,0,0,0,0,0,0,0,0,0,0,0,0,0,0,0,0,0,0,0,0,0,0,0,0,0,0,0,0,0,0,0,0,0,0,0,0,0,0,0,0,0,0,0,0,0,0,0,0,0,0,0,0,0,0,0,0,0,0,0,0,0,0],"sum_hessian":[4.3126378E5,2.7989912E5,1.5136469E5,1.23881055E5,1.5601806E5,1.2281278E5,2.8551898E4,7.450725E4,4.93738E4,1.4022486E5,1.5793204E4,8.391389E4,3.889889E4,1.9921164E4,8.630733E3,1.3387697E4,6.1119555E4,4.1609137E4,7.764666E3,3.8032637E4,1.0219222E5,6.3027173E3,9.490487E3,6.887116E4,1.5042738E4,1.8786951E4,2.011194E4,6.6301606E3,1.3291004E4,6.4498E3,2.1809336E3,3.5807966E3,9.806901E3,5.6711836E4,4.4077197E3,1.60287705E4,2.5580365E4,1.1914434E3,6.5732227E3,3.1012008E4,7.0206294E3,5.8577168E4,4.361505E4,6.111449E3,1.9126791E2,5.1942974E3,4.29619E3,7.2608774E3,6.1610277E4,5.64951E3,9.393229E3,5.652889E3,1.3134062E4,1.2406312E4,7.7056284E3,4.7510415E3,1.8791188E3,5.5471396E3,7.7438647E3,5.4608823E3,9.889174E2,8.144762E2,1.3664573E3],"tree_param":{"num_deleted":"0","num_feature":"15","num_nodes":"63","size_leaf_vector":"1"}},{"base_weights":[1.7061898E-3,-8.6297673E-1,3.6415058E-1,-1.0649983E0,-1.6984567E-1,-8.823487E-2,5.50445E-1,-1.1026022E0,5.184673E-1,-3.2099324E-1,9.589421E-1,2.3274828E-1,-4.434825E-1,3.4728205E-1,7.6596403E-1,-1.2359786E0,-8.2940483E-1,7.726594E-1,3.097303E-1,-6.9525427E-1,8.056599E-2,1.1123626E0,8.2427084E-1,-1.0004229E-1,5.3600943E-1,-6.799439E-1,-1.4677113E-2,6.258937E-2,5.7799214E-1,6.6065794E-1,1.0464462E0,-6.278244E-2,-3.3463497E-2,-5.0166022E-2,-3.1537082E-2,3.3416398E-2,5.2371778E-2,9.593389E-3,3.431162E-2,-4.5198753E-2,-1.887143E-2,-8.365649E-3,1.6953392E-2,5.23803E-2,5.9343703E-2,3.2596715E-2,5.051152E-2,-2.299657E-2,1.0118963E-3,1.7691135E-2,3.203233E-2,-3.6120243E-2,1.2735485E-2,-1.0583396E-2,6.6476436E-3,1.6564913E-2,-1.1924667E-2,4.076475E-2,1.7541807E-2,4.0937643E-2,2.3611633E-2,4.5049008E-2,5.579124E-2],"categories":[],"categories_nodes":[],"categories_segments":[],"categories_sizes":[],"default_left":[0,0,0,0,0,0,0,0,0,0,0,0,0,0,0,0,0,0,0,0,0,0,0,0,0,0,0,0,0,0,0,0,0,0,0,0,0,0,0,0,0,0,0,0,0,0,0,0,0,0,0,0,0,0,0,0,0,0,0,0,0,0,0],"id":9,"left_children":[1,3,5,7,9,11,13,15,17,19,21,23,25,27,29,31,33,35,37,39,41,43,45,47,49,51,53,55,57,59,61,-1,-1,-1,-1,-1,-1,-1,-1,-1,-1,-1,-1,-1,-1,-1,-1,-1,-1,-1,-1,-1,-1,-1,-1,-1,-1,-1,-1,-1,-1,-1,-1],"loss_changes":[1.347885E5,1.77875E4,2.5540602E4,5.857453E3,4.891767E3,1.008E4,9.398645E3,3.4999375E3,1.2086145E2,3.80008E3,6.903955E1,4.686815E3,4.254544E3,7.257659E3,3.0758555E3,7.188125E2,1.0884727E3,2.8783691E1,5.555538E1,8.678369E2,7.81704E2,6.3797607E0,5.7250854E1,9.585022E2,4.6297412E2,1.0735264E3,4.3378702E2,4.0018613E3,3.289836E3,2.255582E3,2.8592188E2,0E0,0E0,0E0,0E0,0E0,0E0,0E0,0E0,0E0,0E0,0E0,0E0,0E0,0E0,0E0,0E0,0E0,0E0,0E0,0E0,0E0,0E0,0E0,0E0,0E0,0E0,0E0,0E0,0E0,0E0,0E0,0E0],"parents":[2147483647,0,0,1,1,2,2,3,3,4,4,5,5,6,6,7,7,8,8,9,9,10,10,11,11,12,12,13,13,14,14,15,15,16,16,17,17,18,18,19,19,20,20,21,21,22,22,23,23,24,24,25,25,26,26,27,27,28,28,29,29,30,30],"right_children":[2,4,6,8,10,12,14,16,18,20,22,24,26,28,30,32,34,36,38,40,42,44,46,48,50,52,54,56,58,60,62,-1,-1,-1,-1,-1,-1,-1,-1,-1,-1,-1,-1,-1,-1,-1,-1,-1,-1,-1,-1,-1,-1,-1,-1,-1,-1,-1,-1,-1,-1,-1,-1],"split_conditions":[9.563248E-2,1.2296056E0,2.9158384E-1,4.3037896E0,4.3037896E0,9.40713E-1,1.1616938E0,-4.5672876E-1,4.498929E-2,-4.5672876E-1,9.40713E-1,9.241743E-1,1.2003549E0,9.241743E-1,4.3037896E0,2.1083953E0,2.9158384E-1,2.2643425E-1,2.2643425E-1,9.903642E-1,1.1616938E0,2.167627E0,2.167627E0,3.718131E-1,1.2003549E0,4.3037896E0,1.4765356E0,9.40713E-1,9.40713E-1,9.40713E-1,1.2296056E0,-6.278244E-2,-3.3463497E-2,-5.0166022E-2,-3.1537082E-2,3.3416398E-2,5.2371778E-2,9.593389E-3,3.431162E-2,-4.5198753E-2,-1.887143E-2,-8.365649E-3,1.6953392E-2,5.23803E-2,5.9343703E-2,3.2596715E-2,5.051152E-2,-2.299657E-2,1.0118963E-3,1.7691135E-2,3.203233E-2,-3.6120243E-2,1.2735485E-2,-1.0583396E-2,6.6476436E-3,1.6564913E-2,-1.1924667E-2,4.076475E-2,1.7541807E-2,4.0937643E-2,2.3611633E-2,4.5049008E-2,5.579124E-2],"split_indices":[0,1,1,2,2,7,13,0,11,0,7,0,0,0,2,3,1,5,5,5,13,1,1,0,0,2,0,7,7,7,1,0,0,0,0,0,0,0,0,0,0,0,0,0,0,0,0,0,0,0,0,0,0,0,0,0,0,0,0,0,0,0,0],"split_type":[0,0,0,0,0,0,0,0,0,0,0,0,0,0,0,0,0,0,0,0,0,0,0,0,0,0,0,0,0,0,0,0,0,0,0,0,0,0,0,0,0,0,0,0,0,0,0,0,0,0,0,0,0,0,0,0,0,0,0,0,0,0,0],"sum_hessian":[4.3008328E5,1.27029016E5,3.0305425E5,9.8360195E4,2.8668822E4,8.8397055E4,2.146572E5,9.607883E4,2.281368E3,2.5283951E4,3.38487E3,4.643824E4,4.1958816E4,1.104974E5,1.0415981E5,6.4557848E4,3.152098E4,1.0274618E3,1.2539061E3,1.3086421E4,1.219753E4,1.5788961E3,1.805974E3,2.2141465E4,2.4296773E4,2.704466E4,1.4914156E4,4.946259E4,6.103481E4,7.573044E4,2.8429367E4,6.239107E4,2.1667742E3,1.680518E4,1.47158E4,7.471891E2,2.8027267E2,9.561094E2,2.9779678E2,7.8979053E3,5.1885156E3,6.2268857E3,5.970645E3,8.52801E2,7.2609515E2,9.396585E2,8.663154E2,5.545628E3,1.6595836E4,8.865381E3,1.5431392E4,2.586964E4,1.1750197E3,6.388798E3,8.525358E3,2.6136398E4,2.3326191E4,2.9849438E4,3.1185373E4,4.1177695E4,3.4552746E4,9.1850625E3,1.9244305E4],"tree_param":{"num_deleted":"0","num_feature":"15","num_nodes":"63","size_leaf_vector":"1"}},{"base_weights":[2.0967966E-3,-8.3186173E-1,3.480542E-1,-1.0273901E0,-1.670285E-1,1.3866039E-1,7.278295E-1,-1.1735766E0,-7.3776275E-1,-6.9501805E-1,1.0626049E-1,4.0740174E-1,-1.6493523E-1,8.718465E-1,5.7933927E-1,-1.1960775E0,-5.7405955E-1,-8.027643E-1,-1.09817825E-1,-8.361542E-1,-1.5289341E-1,-7.470913E-2,5.0724983E-1,-6.1681375E-2,5.692281E-1,-3.847298E-1,2.0511569E-1,7.323961E-1,9.9340457E-1,3.9770997E-1,7.2894657E-1,-6.497278E-2,-5.6684244E-2,-3.2750305E-2,2.7698444E-3,-3.1088898E-2,-4.940545E-2,-1.3803797E-2,1.9780472E-2,-5.378278E-2,-3.3048246E-2,-1.6480362E-2,2.7947588E-2,-1.2986441E-2,8.023433E-3,1.7697467E-2,3.722946E-2,-1.3930176E-2,6.5054223E-3,2.0768208E-2,3.7358936E-2,-3.2394987E-2,-7.5841434E-3,-5.271653E-4,1.8580845E-2,3.1087339E-2,4.7390603E-2,4.704426E-2,5.5496365E-2,1.3449433E-2,3.312997E-2,3.1734236E-2,4.6849083E-2],"categories":[],"categories_nodes":[],"categories_segments":[],"categories_sizes":[],"default_left":[0,0,0,0,0,0,0,0,0,0,0,0,0,0,0,0,0,0,0,0,0,0,0,0,0,0,0,0,0,0,0,0,0,0,0,0,0,0,0,0,0,0,0,0,0,0,0,0,0,0,0,0,0,0,0,0,0,0,0,0,0,0,0],"id":10,"left_children":[1,3,5,7,9,11,13,15,17,19,21,23,25,27,29,31,33,35,37,39,41,43,45,47,49,51,53,55,57,59,61,-1,-1,-1,-1,-1,-1,-1,-1,-1,-1,-1,-1,-1,-1,-1,-1,-1,-1,-1,-1,-1,-1,-1,-1,-1,-1,-1,-1,-1,-1,-1,-1],"loss_changes":[1.23278E5,1.6285766E4,2.4015996E4,4.0980312E3,4.108587E3,1.5883023E4,2.294836E3,8.671797E2,1.325498E3,7.429243E2,1.3616003E3,7.8387617E3,7.4348203E3,9.228711E2,1.4357793E3,3.9847656E2,1.18713135E2,9.8659375E2,2.5619983E2,3.2258252E2,2.526803E2,5.626201E2,2.1202917E2,1.1020139E3,2.1018496E3,3.5170684E3,1.223097E3,6.04334E2,1.7708594E2,8.137871E2,5.676543E2,0E0,0E0,0E0,0E0,0E0,0E0,0E0,0E0,0E0,0E0,0E0,0E0,0E0,0E0,0E0,0E0,0E0,0E0,0E0,0E0,0E0,0E0,0E0,0E0,0E0,0E0,0E0,0E0,0E0,0E0,0E0,0E0],"parents":[2147483647,0,0,1,1,2,2,3,3,4,4,5,5,6,6,7,7,8,8,9,9,10,10,11,11,12,12,13,13,14,14,15,15,16,16,17,17,18,18,19,19,20,20,21,21,22,22,23,23,24,24,25,25,26,26,27,27,28,28,29,29,30,30],"right_children":[2,4,6,8,10,12,14,16,18,20,22,24,26,28,30,32,34,36,38,40,42,44,46,48,50,52,54,56,58,60,62,-1,-1,-1,-1,-1,-1,-1,-1,-1,-1,-1,-1,-1,-1,-1,-1,-1,-1,-1,-1,-1,-1,-1,-1,-1,-1,-1,-1,-1,-1,-1,-1],"split_conditions":[9.563248E-2,1.2296056E0,1.2296056E0,-4.5672876E-1,-7.329094E-1,9.40713E-1,9.40713E-1,2.1083953E0,2.1083953E0,2.167627E0,2.167627E0,6.479937E-1,1.2003549E0,9.241743E-1,9.241743E-1,-1.2852706E0,2.291907E0,9.40713E-1,2.291907E0,-1.2852706E0,2.291907E0,-1.8054813E-1,2.291907E0,2.9158384E-1,1.2003549E0,2.9158384E-1,2.9158384E-1,2.167627E0,2.167627E0,2.167627E0,2.167627E0,-6.497278E-2,-5.6684244E-2,-3.2750305E-2,2.7698444E-3,-3.1088898E-2,-4.940545E-2,-1.3803797E-2,1.9780472E-2,-5.378278E-2,-3.3048246E-2,-1.6480362E-2,2.7947588E-2,-1.2986441E-2,8.023433E-3,1.7697467E-2,3.722946E-2,-1.3930176E-2,6.5054223E-3,2.0768208E-2,3.7358936E-2,-3.2394987E-2,-7.5841434E-3,-5.271653E-4,1.8580845E-2,3.1087339E-2,4.7390603E-2,4.704426E-2,5.5496365E-2,1.3449433E-2,3.312997E-2,3.1734236E-2,4.6849083E-2],"split_indices":[0,1,1,0,0,7,7,3,3,1,1,0,0,0,0,0,4,7,4,0,4,0,4,1,0,1,1,1,1,1,1,0,0,0,0,0,0,0,0,0,0,0,0,0,0,0,0,0,0,0,0,0,0,0,0,0,0,0,0,0,0,0,0],"split_type":[0,0,0,0,0,0,0,0,0,0,0,0,0,0,0,0,0,0,0,0,0,0,0,0,0,0,0,0,0,0,0,0,0,0,0,0,0,0,0,0,0,0,0,0,0,0,0,0,0,0,0,0,0,0,0,0,0,0,0,0,0,0,0],"sum_hessian":[4.2728384E5,1.2528141E5,3.0200244E5,9.680915E4,2.847226E4,1.9467006E5,1.07332375E5,6.433411E4,3.2475037E4,9.710398E3,1.8761861E4,1.03262375E5,9.140769E4,5.4484434E4,5.284794E4,6.2005934E4,2.3281755E3,2.9428479E4,3.046559E3,7.7041616E3,2.0062366E3,1.2928115E4,5.833746E3,2.6486643E4,7.677573E4,5.7346348E4,3.406134E4,2.5378014E4,2.9106422E4,2.387111E4,2.897683E4,2.3330246E4,3.8675684E4,2.0628567E3,2.653189E2,1.4891498E4,1.453698E4,2.2928047E3,7.537544E2,3.2525127E3,4.451649E3,1.6076727E3,3.9856384E2,7.2356006E3,5.6925146E3,3.5458977E3,2.2878486E3,1.2428757E4,1.4057887E4,4.1176254E4,3.5599473E4,2.6931723E4,3.0414625E4,1.4840399E4,1.922094E4,1.6768625E4,8.60939E3,2.0069652E4,9.036768E3,1.606597E4,7.80514E3,1.9944098E4,9.032731E3],"tree_param":{"num_deleted":"0","num_feature":"15","num_nodes":"63","size_leaf_vector":"1"}},{"base_weights":[4.5370133E-4,-9.3685097E-1,2.8078014E-1,-1.0003371E0,7.4826497E-1,5.8158796E-2,6.2093365E-1,-1.0709974E0,-2.6513383E-1,5.3470767E-1,9.332452E-1,-3.7368354E-1,2.7043012E-1,5.075608E-1,9.430556E-1,-1.1237651E0,-6.773944E-1,-5.558939E-1,-8.845741E-2,6.3700145E-1,2.233103E-1,8.13609E-1,1.0135499E0,-6.67211E-1,-2.229583E-1,9.314145E-2,4.6012345E-1,2.3626241E-1,6.405923E-1,7.7886164E-1,1.0104787E0,-6.057644E-2,-4.8541274E-2,-5.4215927E-2,-2.5970358E-2,-4.1088548E-2,-1.7662315E-2,-1.639483E-2,5.2367826E-3,2.9560355E-2,5.6020826E-2,5.4204636E-3,4.2293455E-2,4.4510458E-2,2.4543367E-2,6.66992E-2,4.9370017E-2,-4.1078657E-2,-2.2013491E-2,-2.4597602E-2,-3.074259E-3,-2.5098637E-2,7.5332033E-3,1.1537268E-2,2.833055E-2,-8.610546E-3,1.957514E-2,2.2604391E-2,3.7470806E-2,3.4300573E-2,4.51067E-2,4.8740003E-2,5.6920674E-2],"categories":[],"categories_nodes":[],"categories_segments":[],"categories_sizes":[],"default_left":[0,0,0,0,0,0,0,0,0,0,0,0,0,0,0,0,0,0,0,0,0,0,0,0,0,0,0,0,0,0,0,0,0,0,0,0,0,0,0,0,0,0,0,0,0,0,0,0,0,0,0,0,0,0,0,0,0,0,0,0,0,0,0],"id":11,"left_children":[1,3,5,7,9,11,13,15,17,19,21,23,25,27,29,31,33,35,37,39,41,43,45,47,49,51,53,55,57,59,61,-1,-1,-1,-1,-1,-1,-1,-1,-1,-1,-1,-1,-1,-1,-1,-1,-1,-1,-1,-1,-1,-1,-1,-1,-1,-1,-1,-1,-1,-1,-1,-1],"loss_changes":[1.1144868E5,1.0447656E4,2.4724996E4,4.8885E3,1.3958118E2,1.8090762E4,4.716426E3,1.7823984E3,4.2390216E2,5.235956E1,1.7417603E1,2.8772783E3,4.449705E3,3.447914E3,3.714336E2,1.01496875E3,6.520845E2,1.6776587E2,2.3755539E2,2.6790771E1,2.9171751E1,1.8542175E1,8.168701E0,7.726201E2,1.8665457E3,2.3413733E3,1.5611748E3,1.9934153E3,1.314666E3,1.1145801E2,1.0767383E2,0E0,0E0,0E0,0E0,0E0,0E0,0E0,0E0,0E0,0E0,0E0,0E0,0E0,0E0,0E0,0E0,0E0,0E0,0E0,0E0,0E0,0E0,0E0,0E0,0E0,0E0,0E0,0E0,0E0,0E0,0E0,0E0],"parents":[2147483647,0,0,1,1,2,2,3,3,4,4,5,5,6,6,7,7,8,8,9,9,10,10,11,11,12,12,13,13,14,14,15,15,16,16,17,17,18,18,19,19,20,20,21,21,22,22,23,23,24,24,25,25,26,26,27,27,28,28,29,29,30,30],"right_children":[2,4,6,8,10,12,14,16,18,20,22,24,26,28,30,32,34,36,38,40,42,44,46,48,50,52,54,56,58,60,62,-1,-1,-1,-1,-1,-1,-1,-1,-1,-1,-1,-1,-1,-1,-1,-1,-1,-1,-1,-1,-1,-1,-1,-1,-1,-1,-1,-1,-1,-1,-1,-1],"split_conditions":[-1.8054813E-1,4.3037896E0,1.1616938E0,2.1083953E0,8.247812E-1,6.479937E-1,4.3037896E0,1.1006949E0,-7.329094E-1,1.0178728E0,1.8732533E0,-4.4442195E-1,1.2003549E0,6.479937E-1,-1.1332548E-1,-7.329094E-1,-1.2852706E0,1.0455121E0,1.2662431E0,3.352252E0,2.1083953E0,1.0178728E0,-1.9007778E0,3.718131E-1,6.6414736E-2,-7.755184E-1,-4.4442195E-1,-1.6850822E-1,-1.1332548E-1,2.2569728E0,3.352252E0,-6.057644E-2,-4.8541274E-2,-5.4215927E-2,-2.5970358E-2,-4.1088548E-2,-1.7662315E-2,-1.639483E-2,5.2367826E-3,2.9560355E-2,5.6020826E-2,5.4204636E-3,4.2293455E-2,4.4510458E-2,2.4543367E-2,6.66992E-2,4.9370017E-2,-4.1078657E-2,-2.2013491E-2,-2.4597602E-2,-3.074259E-3,-2.5098637E-2,7.5332033E-3,1.1537268E-2,2.833055E-2,-8.610546E-3,1.957514E-2,2.2604391E-2,3.7470806E-2,3.4300573E-2,4.51067E-2,4.8740003E-2,5.6920674E-2],"split_indices":[0,2,13,3,14,0,2,14,0,11,14,14,0,0,14,0,0,14,14,13,3,11,11,0,13,14,14,14,14,13,13,0,0,0,0,0,0,0,0,0,0,0,0,0,0,0,0,0,0,0,0,0,0,0,0,0,0,0,0,0,0,0,0],"split_type":[0,0,0,0,0,0,0,0,0,0,0,0,0,0,0,0,0,0,0,0,0,0,0,0,0,0,0,0,0,0,0,0,0,0,0,0,0,0,0,0,0,0,0,0,0,0,0,0,0,0,0,0,0,0,0,0,0,0,0,0,0,0,0],"sum_hessian":[4.2415838E5,9.765038E4,3.26508E5,9.41054E4,3.544985E3,1.9734933E5,1.29158664E5,8.585358E4,8.251826E3,1.6472018E3,1.8977833E3,6.5037344E4,1.3231198E5,9.553655E4,3.362211E4,7.5702766E4,1.0150811E4,3.1181218E3,5.133704E3,1.2391096E3,4.080922E2,7.6670123E2,1.1310822E3,2.2064588E4,4.2972754E4,6.839296E4,6.391903E4,3.1434088E4,6.410246E4,9.790962E3,2.3831148E4,4.8096125E4,2.760664E4,2.8372097E3,7.313601E3,1.3473373E3,1.7707844E3,2.292158E3,2.8415464E3,1.1339158E3,1.0519391E2,3.4549997E2,6.2592213E1,6.1821466E2,1.4848657E2,8.156604E1,1.0495161E3,1.3130674E4,8.933915E3,1.61188125E4,2.6853943E4,6.027391E3,6.236557E4,2.0266793E4,4.365224E4,8.656562E3,2.2777525E4,2.3463746E4,4.0638715E4,5.5883315E3,4.202631E3,1.864109E4,5.1900596E3],"tree_param":{"num_deleted":"0","num_feature":"15","num_nodes":"63","size_leaf_vector":"1"}},{"base_weights":[-2.2635225E-3,-7.7323604E-1,3.1346208E-1,-8.44707E-1,7.265174E-1,1.1563091E-1,6.1227304E-1,-9.541192E-1,-2.3454075E-1,5.7097894E-1,8.893174E-1,3.6883232E-1,-1.434562E-1,6.8080395E-1,1.2098067E-1,-1.1124891E0,-6.5301085E-1,-4.0053102E-1,3.7715897E-1,4.573082E-1,8.9321995E-1,1.0236192E0,7.8061855E-1,-5.692184E-2,5.223958E-1,-3.59311E-1,2.1218269E-1,5.7343316E-1,9.1069716E-1,-1.2022787E-1,4.6730036E-1,-5.6810725E-2,-3.014789E-2,-3.732718E-2,-7.3914505E-3,-3.6443107E-2,-9.286319E-3,9.553252E-3,2.6066838E-2,3.280055E-2,1.24711E-2,5.0612923E-2,3.7323754E-2,4.7791373E-2,5.620671E-2,4.339378E-2,3.3547908E-2,-1.2524587E-2,4.549691E-3,1.9127306E-2,3.450215E-2,-2.884475E-2,-9.981248E-3,1.924586E-4,1.7661799E-2,3.670646E-2,2.0018233E-2,5.0714917E-2,3.954793E-2,5.622059E-3,-3.139417E-2,1.714228E-2,4.0538598E-2],"categories":[],"categories_nodes":[],"categories_segments":[],"categories_sizes":[],"default_left":[0,0,0,0,0,0,0,0,0,0,0,0,0,0,0,0,0,0,0,0,0,0,0,0,0,0,0,0,0,0,0,0,0,0,0,0,0,0,0,0,0,0,0,0,0,0,0,0,0,0,0,0,0,0,0,0,0,0,0,0,0,0,0],"id":12,"left_children":[1,3,5,7,9,11,13,15,17,19,21,23,25,27,29,31,33,35,37,39,41,43,45,47,49,51,53,55,57,59,61,-1,-1,-1,-1,-1,-1,-1,-1,-1,-1,-1,-1,-1,-1,-1,-1,-1,-1,-1,-1,-1,-1,-1,-1,-1,-1,-1,-1,-1,-1,-1,-1],"loss_changes":[1.0254775E5,1.31204375E4,1.7668385E4,7.7994375E3,1.404873E2,1.1797153E4,4.0084453E3,4.7234453E3,1.8040095E3,1.0399921E2,3.889087E1,5.9462764E3,6.823296E3,2.5785195E3,1.2176416E3,7.84125E2,1.6134307E3,9.8542725E2,1.0165344E2,8.6960205E1,1.2209839E1,7.190674E0,1.38359375E1,6.903187E2,1.566834E3,1.921707E3,9.865487E2,1.9805098E3,4.118047E2,1.01497675E3,2.5552808E2,0E0,0E0,0E0,0E0,0E0,0E0,0E0,0E0,0E0,0E0,0E0,0E0,0E0,0E0,0E0,0E0,0E0,0E0,0E0,0E0,0E0,0E0,0E0,0E0,0E0,0E0,0E0,0E0,0E0,0E0,0E0,0E0],"parents":[2147483647,0,0,1,1,2,2,3,3,4,4,5,5,6,6,7,7,8,8,9,9,10,10,11,11,12,12,13,13,14,14,15,15,16,16,17,17,18,18,19,19,20,20,21,21,22,22,23,23,24,24,25,25,26,26,27,27,28,28,29,29,30,30],"right_children":[2,4,6,8,10,12,14,16,18,20,22,24,26,28,30,32,34,36,38,40,42,44,46,48,50,52,54,56,58,60,62,-1,-1,-1,-1,-1,-1,-1,-1,-1,-1,-1,-1,-1,-1,-1,-1,-1,-1,-1,-1,-1,-1,-1,-1,-1,-1,-1,-1,-1,-1,-1,-1],"split_conditions":[9.563248E-2,4.3037896E0,1.1616938E0,6.6296566E-1,3.355671E-1,9.40713E-1,2.5223987E0,-4.5672876E-1,2.291907E0,2.291907E0,9.40713E-1,6.479937E-1,1.2003549E0,2.2569728E0,2.2569728E0,2.291907E0,2.291907E0,-7.329094E-1,1.2027092E0,9.40713E-1,9.40713E-1,2.291907E0,6.1323917E-1,3.718131E-1,1.2003549E0,6.6414736E-2,1.4765356E0,9.40713E-1,9.40713E-1,9.40713E-1,3.352252E0,-5.6810725E-2,-3.014789E-2,-3.732718E-2,-7.3914505E-3,-3.6443107E-2,-9.286319E-3,9.553252E-3,2.6066838E-2,3.280055E-2,1.24711E-2,5.0612923E-2,3.7323754E-2,4.7791373E-2,5.620671E-2,4.339378E-2,3.3547908E-2,-1.2524587E-2,4.549691E-3,1.9127306E-2,3.450215E-2,-2.884475E-2,-9.981248E-3,1.924586E-4,1.7661799E-2,3.670646E-2,2.0018233E-2,5.0714917E-2,3.954793E-2,5.622059E-3,-3.139417E-2,1.714228E-2,4.0538598E-2],"split_indices":[0,2,13,5,5,7,9,0,4,4,7,0,0,13,13,4,4,0,6,7,7,4,8,0,0,13,0,7,7,7,13,0,0,0,0,0,0,0,0,0,0,0,0,0,0,0,0,0,0,0,0,0,0,0,0,0,0,0,0,0,0,0,0],"split_type":[0,0,0,0,0,0,0,0,0,0,0,0,0,0,0,0,0,0,0,0,0,0,0,0,0,0,0,0,0,0,0,0,0,0,0,0,0,0,0,0,0,0,0,0,0,0,0,0,0,0,0,0,0,0,0,0,0,0,0,0,0,0,0],"sum_hessian":[4.2128438E5,1.22398125E5,2.9888625E5,1.1683096E5,5.5671606E3,1.798295E5,1.19056766E5,9.906629E4,1.7764668E4,2.8493816E3,2.717779E3,9.094757E4,8.888193E4,1.0448206E5,1.4574704E4,6.4919027E4,3.4147266E4,1.3973246E4,3.7914224E3,2.1081494E3,7.412322E2,1.2119497E3,1.5058295E3,2.4108229E4,6.6839336E4,5.531096E4,3.357097E4,7.122171E4,3.3260348E4,8.591474E3,5.983231E3,6.20295E4,2.8895264E3,2.8812285E4,5.3349814E3,5.5253296E3,8.447917E3,1.6561338E3,2.1352886E3,1.0767804E3,1.031369E3,4.0599417E2,3.3523804E2,7.3006915E2,4.8188058E2,8.3472375E2,6.711057E2,1.0442262E4,1.3665966E4,3.6442566E4,3.0396771E4,2.3410215E4,3.1900748E4,1.3553573E4,2.0017395E4,3.692925E4,3.429246E4,1.7827793E4,1.5432557E4,5.891881E3,2.6995928E3,4.3933325E3,1.5898984E3],"tree_param":{"num_deleted":"0","num_feature":"15","num_nodes":"63","size_leaf_vector":"1"}},{"base_weights":[-3.0169892E-4,-8.757602E-1,2.5536478E-1,-9.335179E-1,6.628509E-1,5.4343328E-2,5.6614965E-1,-1.0021241E0,-2.3641117E-1,5.088205E-1,8.326512E-1,-3.4544787E-1,2.493565E-1,4.5702815E-1,8.7988365E-1,-1.038142E0,-4.541931E-1,-3.667472E-1,2.3867653E-1,3.97478E-1,8.8619906E-1,7.746724E-1,9.6458054E-1,-5.4529333E-1,-1.9438367E-1,9.850227E-2,4.1269007E-1,2.8318733E-1,6.361374E-1,7.627049E-1,9.6584046E-1,-5.388632E-2,-3.5910893E-2,-3.164121E-2,1.410901E-4,-2.9958982E-2,-9.999654E-3,1.3464029E-4,1.9464107E-2,1.70295E-2,3.2011848E-2,3.6374692E-2,5.5541605E-2,3.3414986E-2,4.4057675E-2,6.2494915E-2,4.570366E-2,-3.427761E-2,-1.6227389E-2,-1.4724614E-2,6.9419527E-3,-5.7986747E-3,1.191629E-2,1.3543941E-2,2.4658479E-2,2.340794E-3,2.397927E-2,2.6061622E-2,3.7521858E-2,3.347807E-2,4.3199196E-2,4.4373702E-2,5.25721E-2],"categories":[],"categories_nodes":[],"categories_segments":[],"categories_sizes":[],"default_left":[0,0,0,0,0,0,0,0,0,0,0,0,0,0,0,0,0,0,0,0,0,0,0,0,0,0,0,0,0,0,0,0,0,0,0,0,0,0,0,0,0,0,0,0,0,0,0,0,0,0,0,0,0,0,0,0,0,0,0,0,0,0,0],"id":13,"left_children":[1,3,5,7,9,11,13,15,17,19,21,23,25,27,29,31,33,35,37,39,41,43,45,47,49,51,53,55,57,59,61,-1,-1,-1,-1,-1,-1,-1,-1,-1,-1,-1,-1,-1,-1,-1,-1,-1,-1,-1,-1,-1,-1,-1,-1,-1,-1,-1,-1,-1,-1,-1,-1],"loss_changes":[9.373561E4,8.412586E3,2.0249854E4,4.3630938E3,8.916528E1,1.5345342E4,4.3580117E3,1.6387188E3,5.0633295E2,7.522464E1,1.1703247E1,1.9480576E3,3.2596094E3,2.9408906E3,3.301582E2,9.861953E2,4.1838037E2,2.4855817E2,6.25739E1,1.8987625E1,1.37717285E1,1.227655E1,5.9599304E0,8.598789E2,1.2260477E3,2.062513E3,7.2480273E2,2.2252805E3,6.1062305E2,1.30604E2,1.2616797E2,0E0,0E0,0E0,0E0,0E0,0E0,0E0,0E0,0E0,0E0,0E0,0E0,0E0,0E0,0E0,0E0,0E0,0E0,0E0,0E0,0E0,0E0,0E0,0E0,0E0,0E0,0E0,0E0,0E0,0E0,0E0,0E0],"parents":[2147483647,0,0,1,1,2,2,3,3,4,4,5,5,6,6,7,7,8,8,9,9,10,10,11,11,12,12,13,13,14,14,15,15,16,16,17,17,18,18,19,19,20,20,21,21,22,22,23,23,24,24,25,25,26,26,27,27,28,28,29,29,30,30],"right_children":[2,4,6,8,10,12,14,16,18,20,22,24,26,28,30,32,34,36,38,40,42,44,46,48,50,52,54,56,58,60,62,-1,-1,-1,-1,-1,-1,-1,-1,-1,-1,-1,-1,-1,-1,-1,-1,-1,-1,-1,-1,-1,-1,-1,-1,-1,-1,-1,-1,-1,-1,-1,-1],"split_conditions":[-1.8054813E-1,4.3037896E0,1.1616938E0,2.1083953E0,3.355671E-1,6.479937E-1,4.3037896E0,2.291907E0,2.291907E0,2.291907E0,2.291907E0,6.6414736E-2,1.2003549E0,9.241743E-1,-2.1009715E-1,5.538328E-1,1.17301404E-1,-7.329094E-1,2.2838527E-1,2.1083953E0,2.1083953E0,1.5943178E0,-1.00909E0,3.718131E-1,3.355671E-1,6.6414736E-2,6.6414736E-2,2.291907E0,-2.1009715E-1,2.2569728E0,2.291907E0,-5.388632E-2,-3.5910893E-2,-3.164121E-2,1.410901E-4,-2.9958982E-2,-9.999654E-3,1.3464029E-4,1.9464107E-2,1.70295E-2,3.2011848E-2,3.6374692E-2,5.5541605E-2,3.3414986E-2,4.4057675E-2,6.2494915E-2,4.570366E-2,-3.427761E-2,-1.6227389E-2,-1.4724614E-2,6.9419527E-3,-5.7986747E-3,1.191629E-2,1.3543941E-2,2.4658479E-2,2.340794E-3,2.397927E-2,2.6061622E-2,3.7521858E-2,3.347807E-2,4.3199196E-2,4.4373702E-2,5.25721E-2],"split_indices":[0,2,13,3,5,0,2,4,4,4,4,13,0,0,5,5,5,0,12,3,3,12,0,0,5,13,13,4,5,13,4,0,0,0,0,0,0,0,0,0,0,0,0,0,0,0,0,0,0,0,0,0,0,0,0,0,0,0,0,0,0,0,0],"split_type":[0,0,0,0,0,0,0,0,0,0,0,0,0,0,0,0,0,0,0,0,0,0,0,0,0,0,0,0,0,0,0,0,0,0,0,0,0,0,0,0,0,0,0,0,0,0,0,0,0,0,0,0,0,0,0,0,0,0,0,0,0,0,0],"sum_hessian":[4.1878703E5,9.465726E4,3.2412978E5,9.123287E4,3.424384E3,1.9682252E5,1.2730727E5,8.305821E4,8.1746606E3,1.7976675E3,1.6267164E3,6.453018E4,1.3229234E5,9.445635E4,3.285092E4,7.793435E4,5.1238604E3,6.414993E3,1.7596675E3,1.3897009E3,4.0796658E2,1.1348549E3,4.918616E2,2.7778678E4,3.67515E4,6.877429E4,6.351805E4,4.793446E4,4.6521887E4,1.390504E4,1.894588E4,6.935113E4,8.58322E3,3.6836616E3,1.4401987E3,2.678683E3,3.7363098E3,6.859193E2,1.0737482E3,1.1278129E3,2.6188806E2,2.415488E2,1.6641779E2,5.713562E2,5.6349866E2,7.040335E1,4.2145825E2,1.6984709E4,1.0793969E4,2.8261223E4,8.490277E3,2.7141705E4,4.1632582E4,2.2998043E4,4.0520008E4,2.1754023E4,2.6180438E4,2.3202287E4,2.33196E4,7.247408E3,6.657632E3,9.896875E3,9.049007E3],"tree_param":{"num_deleted":"0","num_feature":"15","num_nodes":"63","size_leaf_vector":"1"}},{"base_weights":[3.941169E-3,-2.177812E-1,4.7996512E-1,-3.3234656E-1,3.1038496E-1,2.3599303E-1,6.638502E-1,-1.7472804E-1,-6.0041547E-1,4.946121E-1,5.428209E-2,-6.986762E-2,3.6499444E-1,5.51415E-1,8.347462E-1,-6.543892E-1,-7.6350786E-2,-8.140112E-1,-3.7864903E-1,2.7366844E-1,6.0416853E-1,-5.457012E-2,4.6508503E-1,1.1301748E-1,-2.3134974E-1,3.9535123E-1,-5.368865E-1,6.024175E-1,-6.936486E-2,8.904119E-1,5.135946E-1,-2.464015E-2,-4.354331E-2,4.9423194E-3,-1.495932E-2,-4.607023E-2,-3.1023076E-2,-3.073482E-2,-1.1570016E-2,-4.3058987E-3,1.4996052E-2,3.250089E-2,1.0768882E-2,-1.012817E-2,4.202427E-3,2.7256984E-2,-1.2571971E-2,1.405077E-2,-7.227003E-3,-1.6811764E-2,-4.495354E-3,2.8071856E-2,1.217388E-2,-1.5876027E-2,-4.8447628E-2,3.7283458E-2,2.3484787E-2,2.7567947E-3,-1.7101144E-2,4.9543895E-2,3.925629E-2,1.87326E-2,4.0703833E-2],"categories":[],"categories_nodes":[],"categories_segments":[],"categories_sizes":[],"default_left":[0,0,0,0,0,0,0,0,0,0,0,0,0,0,0,0,0,0,0,0,0,0,0,0,0,0,0,0,0,0,0,0,0,0,0,0,0,0,0,0,0,0,0,0,0,0,0,0,0,0,0,0,0,0,0,0,0,0,0,0,0,0,0],"id":14,"left_children":[1,3,5,7,9,11,13,15,17,19,21,23,25,27,29,31,33,35,37,39,41,43,45,47,49,51,53,55,57,59,61,-1,-1,-1,-1,-1,-1,-1,-1,-1,-1,-1,-1,-1,-1,-1,-1,-1,-1,-1,-1,-1,-1,-1,-1,-1,-1,-1,-1,-1,-1,-1,-1],"loss_changes":[4.4040992E4,1.7225684E4,5.9484805E3,9.8841875E3,2.3940947E3,2.248605E3,1.452332E3,6.951488E3,4.102631E3,7.142197E2,9.494211E2,4.993214E2,1.097623E3,1.4440283E3,5.358887E2,8.765791E2,4.7725225E3,9.1651953E2,1.4769849E3,9.244818E1,3.5154346E2,3.4435242E2,2.552464E2,3.4310233E2,1.331756E2,9.7802E2,1.23444885E2,8.009336E2,1.1758984E2,2.6967773E2,1.8483105E2,0E0,0E0,0E0,0E0,0E0,0E0,0E0,0E0,0E0,0E0,0E0,0E0,0E0,0E0,0E0,0E0,0E0,0E0,0E0,0E0,0E0,0E0,0E0,0E0,0E0,0E0,0E0,0E0,0E0,0E0,0E0,0E0],"parents":[2147483647,0,0,1,1,2,2,3,3,4,4,5,5,6,6,7,7,8,8,9,9,10,10,11,11,12,12,13,13,14,14,15,15,16,16,17,17,18,18,19,19,20,20,21,21,22,22,23,23,24,24,25,25,26,26,27,27,28,28,29,29,30,30],"right_children":[2,4,6,8,10,12,14,16,18,20,22,24,26,28,30,32,34,36,38,40,42,44,46,48,50,52,54,56,58,60,62,-1,-1,-1,-1,-1,-1,-1,-1,-1,-1,-1,-1,-1,-1,-1,-1,-1,-1,-1,-1,-1,-1,-1,-1,-1,-1,-1,-1,-1,-1,-1,-1],"split_conditions":[1.2296056E0,2.291907E0,1.1616938E0,-4.5458102E-1,9.40713E-1,6.6414736E-2,2.2569728E0,-6.464378E-1,2.9158384E-1,1.1616938E0,2.2569728E0,9.40713E-1,2.5223987E0,2.5223987E0,2.5223987E0,9.40713E-1,9.40713E-1,1.2027092E0,6.6414736E-2,-6.464378E-1,2.5223987E0,1.1616938E0,2.5223987E0,-3.407533E-1,5.538328E-1,9.40713E-1,9.40713E-1,9.40713E-1,9.40713E-1,9.40713E-1,3.352252E0,-2.464015E-2,-4.354331E-2,4.9423194E-3,-1.495932E-2,-4.607023E-2,-3.1023076E-2,-3.073482E-2,-1.1570016E-2,-4.3058987E-3,1.4996052E-2,3.250089E-2,1.0768882E-2,-1.012817E-2,4.202427E-3,2.7256984E-2,-1.2571971E-2,1.405077E-2,-7.227003E-3,-1.6811764E-2,-4.495354E-3,2.8071856E-2,1.217388E-2,-1.5876027E-2,-4.8447628E-2,3.7283458E-2,2.3484787E-2,2.7567947E-3,-1.7101144E-2,4.9543895E-2,3.925629E-2,1.87326E-2,4.0703833E-2],"split_indices":[1,4,13,12,7,13,13,1,1,13,13,7,9,9,9,7,7,6,13,1,9,13,9,12,5,7,7,7,7,7,13,0,0,0,0,0,0,0,0,0,0,0,0,0,0,0,0,0,0,0,0,0,0,0,0,0,0,0,0,0,0,0,0],"split_type":[0,0,0,0,0,0,0,0,0,0,0,0,0,0,0,0,0,0,0,0,0,0,0,0,0,0,0,0,0,0,0,0,0,0,0,0,0,0,0,0,0,0,0,0,0,0,0,0,0,0,0,0,0,0,0,0,0,0,0,0,0,0,0],"sum_hessian":[4.1726953E5,2.8467444E5,1.3259508E5,2.3393222E5,5.0742234E4,5.6987895E4,7.560719E4,1.4731561E5,8.661662E4,2.951194E4,2.1230295E4,1.6905537E4,4.0082355E4,4.5606305E4,3.0000885E4,2.5070906E4,1.22244695E5,4.4119742E4,4.2496875E4,9.783979E3,1.972796E4,1.6783867E4,4.4464263E3,7.9275566E3,8.977981E3,3.8777684E4,1.3046736E3,4.2143848E4,3.4624575E3,2.5567463E4,4.4334224E3,1.4357345E4,1.0713562E4,6.843807E4,5.3806625E4,2.837293E4,1.5746812E4,1.6324569E4,2.6172307E4,6.652046E2,9.118773E3,1.7646299E4,2.0816624E3,8.1172236E3,8.666645E3,3.9997844E3,4.4664194E2,4.797914E3,3.1296428E3,5.154403E3,3.8235786E3,1.8520902E4,2.025678E4,8.664829E2,4.381906E2,2.0265705E4,2.1878145E4,2.377599E3,1.0848584E3,1.3078914E4,1.2488548E4,3.0331458E3,1.4002767E3],"tree_param":{"num_deleted":"0","num_feature":"15","num_nodes":"63","size_leaf_vector":"1"}},{"base_weights":[-9.0573623E-4,-5.907429E-1,3.4090114E-1,-8.037709E-1,8.00232E-3,-1.5894197E-2,4.8854908E-1,-9.7978896E-1,-4.738174E-1,-4.4119677E-1,2.4553117E-1,2.586197E-1,-3.2443738E-1,6.6040504E-1,3.0357176E-1,-1.010673E0,4.6610823E-1,-5.2921844E-1,5.494837E-1,-5.5160254E-1,7.720391E-1,1.3672847E-1,8.200506E-1,-3.0152581E-3,4.3754128E-1,-4.5499158E-1,9.576199E-2,6.0922605E-1,9.575583E-1,8.193658E-2,5.1869774E-1,-5.4930337E-2,-4.3013085E-2,1.8394297E-2,4.4819776E-2,-1.5957387E-2,-3.7477396E-2,3.5742845E-2,1.7746657E-2,-3.3613615E-2,-5.259544E-3,3.25404E-2,4.6552494E-2,4.532296E-4,2.1266008E-2,4.747078E-2,3.4903478E-2,-1.662754E-2,5.5498276E-3,9.598589E-3,2.5429944E-2,-2.4996376E-2,1.5958775E-2,2.4681634E-3,2.5027884E-2,2.2535726E-2,3.5851985E-2,4.5335695E-2,5.5529844E-2,-1.5927883E-3,2.077062E-2,2.1690842E-2,4.3824E-2],"categories":[],"categories_nodes":[],"categories_segments":[],"categories_sizes":[],"default_left":[0,0,0,0,0,0,0,0,0,0,0,0,0,0,0,0,0,0,0,0,0,0,0,0,0,0,0,0,0,0,0,0,0,0,0,0,0,0,0,0,0,0,0,0,0,0,0,0,0,0,0,0,0,0,0,0,0,0,0,0,0,0,0],"id":15,"left_children":[1,3,5,7,9,11,13,15,17,19,21,23,25,27,29,31,33,35,37,39,41,43,45,47,49,51,53,55,57,59,61,-1,-1,-1,-1,-1,-1,-1,-1,-1,-1,-1,-1,-1,-1,-1,-1,-1,-1,-1,-1,-1,-1,-1,-1,-1,-1,-1,-1,-1,-1,-1,-1],"loss_changes":[8.3460836E4,1.9372227E4,1.3806984E4,6.5055938E3,4.252846E3,6.4976797E3,5.892871E3,3.2626094E3,2.2097285E3,1.847113E3,1.6296444E3,1.9003872E3,1.9814678E3,1.4608516E3,4.256907E3,9.450469E2,6.426709E1,1.7109834E3,6.41604E1,6.8067505E2,2.1569702E1,8.076643E2,6.484302E1,6.1951025E2,4.205923E2,9.588096E2,1.6079837E2,1.4006953E3,1.0884277E2,1.6688159E3,1.3755264E3,0E0,0E0,0E0,0E0,0E0,0E0,0E0,0E0,0E0,0E0,0E0,0E0,0E0,0E0,0E0,0E0,0E0,0E0,0E0,0E0,0E0,0E0,0E0,0E0,0E0,0E0,0E0,0E0,0E0,0E0,0E0,0E0],"parents":[2147483647,0,0,1,1,2,2,3,3,4,4,5,5,6,6,7,7,8,8,9,9,10,10,11,11,12,12,13,13,14,14,15,15,16,16,17,17,18,18,19,19,20,20,21,21,22,22,23,23,24,24,25,25,26,26,27,27,28,28,29,29,30,30],"right_children":[2,4,6,8,10,12,14,16,18,20,22,24,26,28,30,32,34,36,38,40,42,44,46,48,50,52,54,56,58,60,62,-1,-1,-1,-1,-1,-1,-1,-1,-1,-1,-1,-1,-1,-1,-1,-1,-1,-1,-1,-1,-1,-1,-1,-1,-1,-1,-1,-1,-1,-1,-1,-1],"split_conditions":[3.718131E-1,1.2296056E0,2.9158384E-1,-1.8054813E-1,-4.5672876E-1,9.40713E-1,9.40713E-1,4.3037896E0,4.3037896E0,4.3037896E0,4.3037896E0,9.241743E-1,1.4765356E0,4.3037896E0,1.2296056E0,-7.329094E-1,2.291907E0,9.40713E-1,9.40713E-1,2.167627E0,2.167627E0,2.167627E0,9.40713E-1,-6.464378E-1,-6.464378E-1,4.3037896E0,4.3037896E0,9.241743E-1,2.167627E0,1.4765356E0,4.3037896E0,-5.4930337E-2,-4.3013085E-2,1.8394297E-2,4.4819776E-2,-1.5957387E-2,-3.7477396E-2,3.5742845E-2,1.7746657E-2,-3.3613615E-2,-5.259544E-3,3.25404E-2,4.6552494E-2,4.532296E-4,2.1266008E-2,4.747078E-2,3.4903478E-2,-1.662754E-2,5.5498276E-3,9.598589E-3,2.5429944E-2,-2.4996376E-2,1.5958775E-2,2.4681634E-3,2.5027884E-2,2.2535726E-2,3.5851985E-2,4.5335695E-2,5.5529844E-2,-1.5927883E-3,2.077062E-2,2.1690842E-2,4.3824E-2],"split_indices":[0,1,1,0,0,7,7,2,2,2,2,0,0,2,1,0,4,7,7,1,1,1,7,1,1,2,2,0,1,0,2,0,0,0,0,0,0,0,0,0,0,0,0,0,0,0,0,0,0,0,0,0,0,0,0,0,0,0,0,0,0,0,0],"split_type":[0,0,0,0,0,0,0,0,0,0,0,0,0,0,0,0,0,0,0,0,0,0,0,0,0,0,0,0,0,0,0,0,0,0,0,0,0,0,0,0,0,0,0,0,0,0,0,0,0,0,0,0,0,0,0,0,0,0,0,0,0,0,0],"sum_hessian":[4.1396888E5,1.51879E5,2.6208989E5,1.12022195E5,3.98568E4,7.671262E4,1.8537727E5,7.3050484E4,3.8971707E4,1.378557E4,2.607123E4,4.0595004E4,3.6117613E4,9.609562E4,8.928165E4,7.152306E4,1.5274198E3,3.6970617E4,2.0010889E3,1.2636207E4,1.1493634E3,2.192105E4,4.150179E3,1.6487098E4,2.4107906E4,2.7555994E4,8.561617E3,8.19793E4,1.4116325E4,4.3976203E4,4.5305445E4,4.513178E4,2.6391283E4,1.2450624E3,2.823573E2,1.8927168E4,1.8043451E4,1.0802083E3,9.208807E2,9.94694E3,2.6892673E3,6.5504486E2,4.943185E2,1.519867E4,6.7223813E3,2.0108368E3,2.1393425E3,4.23744E3,1.2249657E4,5.4111367E3,1.869677E4,2.6044611E4,1.511384E3,7.6821875E3,8.794301E2,3.318893E4,4.8790367E4,1.0601192E4,3.5151323E3,3.2788613E4,1.1187593E4,3.6619887E4,8.685556E3],"tree_param":{"num_deleted":"0","num_feature":"15","num_nodes":"63","size_leaf_vector":"1"}},{"base_weights":[1.9268276E-3,-8.0480903E-1,2.3175462E-1,-8.611659E-1,6.279628E-1,5.395169E-2,5.6628615E-1,-9.753794E-1,-4.0345496E-1,5.459457E-1,8.815888E-1,-3.1334248E-1,2.271669E-1,4.9234822E-1,8.9637923E-1,-1.0700654E0,-8.15615E-1,-7.64447E-1,-2.2235684E-1,6.885733E-1,4.114643E-1,9.737199E-1,8.102245E-1,-9.515003E-2,-5.539783E-1,4.5250857E-1,-2.3384301E-2,3.3575344E-1,6.549818E-1,9.738757E-1,8.1990707E-1,-5.376562E-2,-1.4025276E-2,-4.8078865E-2,-3.1865492E-2,-4.313687E-2,-1.6889144E-2,-3.1210288E-2,-5.5768383E-3,3.1884696E-2,5.2670717E-2,1.745803E-2,3.1644814E-2,5.544151E-2,4.5021754E-2,5.373272E-2,3.854517E-2,-7.1248016E-3,3.2963976E-2,-3.0554874E-2,2.1099104E-2,1.6046539E-2,3.036177E-2,-4.2551276E-3,2.784324E-2,2.4958633E-2,8.446895E-3,3.9302617E-2,2.6289796E-2,4.581647E-2,5.2747466E-2,3.7633564E-2,4.5939267E-2],"categories":[],"categories_nodes":[],"categories_segments":[],"categories_sizes":[],"default_left":[0,0,0,0,0,0,0,0,0,0,0,0,0,0,0,0,0,0,0,0,0,0,0,0,0,0,0,0,0,0,0,0,0,0,0,0,0,0,0,0,0,0,0,0,0,0,0,0,0,0,0,0,0,0,0,0,0,0,0,0,0,0,0],"id":16,"left_children":[1,3,5,7,9,11,13,15,17,19,21,23,25,27,29,31,33,35,37,39,41,43,45,47,49,51,53,55,57,59,61,-1,-1,-1,-1,-1,-1,-1,-1,-1,-1,-1,-1,-1,-1,-1,-1,-1,-1,-1,-1,-1,-1,-1,-1,-1,-1,-1,-1,-1,-1,-1,-1],"loss_changes":[7.622035E4,7.3603594E3,1.9030389E4,4.5841875E3,7.128613E1,1.3291089E4,2.7095078E3,1.0608359E3,1.144877E3,4.9771973E1,4.743408E0,3.5150962E3,8.015106E3,2.310127E3,1.1961133E2,1.822461E2,6.79209E2,2.4507812E2,5.194138E2,2.281012E1,1.8343994E1,2.5891418E0,4.1635437E0,1.2543054E3,1.7750371E3,1.5214268E3,2.4073865E3,1.2598779E3,7.5307227E2,4.6091797E1,6.733887E1,0E0,0E0,0E0,0E0,0E0,0E0,0E0,0E0,0E0,0E0,0E0,0E0,0E0,0E0,0E0,0E0,0E0,0E0,0E0,0E0,0E0,0E0,0E0,0E0,0E0,0E0,0E0,0E0,0E0,0E0,0E0,0E0],"parents":[2147483647,0,0,1,1,2,2,3,3,4,4,5,5,6,6,7,7,8,8,9,9,10,10,11,11,12,12,13,13,14,14,15,15,16,16,17,17,18,18,19,19,20,20,21,21,22,22,23,23,24,24,25,25,26,26,27,27,28,28,29,29,30,30],"right_children":[2,4,6,8,10,12,14,16,18,20,22,24,26,28,30,32,34,36,38,40,42,44,46,48,50,52,54,56,58,60,62,-1,-1,-1,-1,-1,-1,-1,-1,-1,-1,-1,-1,-1,-1,-1,-1,-1,-1,-1,-1,-1,-1,-1,-1,-1,-1,-1,-1,-1,-1,-1,-1],"split_conditions":[-1.8054813E-1,4.3037896E0,1.2296056E0,1.2296056E0,2.167627E0,6.479937E-1,4.3037896E0,-7.329094E-1,-1.00909E0,9.40713E-1,9.40713E-1,9.40713E-1,9.40713E-1,9.241743E-1,9.40713E-1,2.2569728E0,2.9158384E-1,2.167627E0,6.6414736E-2,3.352252E0,2.3911119E0,7.298471E-4,1.1616938E0,4.3037896E0,4.3037896E0,1.2003549E0,4.3037896E0,9.40713E-1,9.40713E-1,2.167627E0,2.167627E0,-5.376562E-2,-1.4025276E-2,-4.8078865E-2,-3.1865492E-2,-4.313687E-2,-1.6889144E-2,-3.1210288E-2,-5.5768383E-3,3.1884696E-2,5.2670717E-2,1.745803E-2,3.1644814E-2,5.544151E-2,4.5021754E-2,5.373272E-2,3.854517E-2,-7.1248016E-3,3.2963976E-2,-3.0554874E-2,2.1099104E-2,1.6046539E-2,3.036177E-2,-4.2551276E-3,2.784324E-2,2.4958633E-2,8.446895E-3,3.9302617E-2,2.6289796E-2,4.581647E-2,5.2747466E-2,3.7633564E-2,4.5939267E-2],"split_indices":[0,2,1,1,1,0,2,0,0,7,7,7,7,0,7,13,1,1,13,13,12,12,13,2,2,0,2,7,7,1,1,0,0,0,0,0,0,0,0,0,0,0,0,0,0,0,0,0,0,0,0,0,0,0,0,0,0,0,0,0,0,0,0],"split_type":[0,0,0,0,0,0,0,0,0,0,0,0,0,0,0,0,0,0,0,0,0,0,0,0,0,0,0,0,0,0,0,0,0,0,0,0,0,0,0,0,0,0,0,0,0,0,0,0,0,0,0,0,0,0,0,0,0,0,0,0,0,0,0],"sum_hessian":[4.110881E5,9.114625E4,3.1994184E5,8.769716E4,3.449092E3,2.089085E5,1.1103334E5,7.018309E4,1.7514066E4,2.6086611E3,8.404311E2,6.6947945E4,1.4196056E5,9.071621E4,2.0317133E4,4.4063008E4,2.6120086E4,5.8499146E3,1.1664151E4,1.2639878E3,1.3446733E3,3.6132187E2,4.7910922E2,3.511207E4,3.1835871E4,7.473991E4,6.722066E4,4.62177E4,4.4498508E4,1.0085153E4,1.02319795E4,4.3771766E4,2.9124075E2,1.4360254E4,1.1759832E4,4.7537695E3,1.0961454E3,2.5203567E3,9.143795E3,1.1117018E3,1.5228598E2,1.0514159E3,2.9325735E2,1.22094345E2,2.3922751E2,5.861303E1,4.204962E2,3.3039418E4,2.0726548E3,3.0076014E4,1.7598567E3,4.0393145E4,3.4346758E4,6.0758883E4,6.461771E3,2.334551E4,2.287219E4,2.2085611E4,2.2412898E4,5.9056245E3,4.1795283E3,6.0956406E3,4.1363394E3],"tree_param":{"num_deleted":"0","num_feature":"15","num_nodes":"63","size_leaf_vector":"1"}},{"base_weights":[-2.9577275E-3,-6.649495E-1,2.5787753E-1,-8.331051E-1,-1.3321139E-1,-8.8968046E-2,4.044843E-1,-1.0151209E0,-6.509409E-1,-5.395103E-1,7.114721E-2,-3.4164703E-1,1.3707183E-1,2.4870478E-1,5.6462646E-1,-1.0323812E0,-4.9356192E-1,-8.37795E-1,-4.438968E-1,-6.7038685E-1,-8.411368E-2,-7.5112775E-2,3.9965403E-1,-4.1446203E-1,1.06115595E-1,-1.3685806E-1,2.1317512E-1,3.871151E-2,4.1971263E-1,4.7697738E-1,7.5239855E-1,-5.254472E-2,-3.9154228E-2,-2.7448475E-2,3.2532592E-3,-4.37967E-2,-1.6108677E-2,-2.5541604E-2,-1.0729732E-3,-4.3738913E-2,-2.5487592E-2,-9.66738E-3,1.8456874E-2,-1.0084718E-2,7.016424E-3,1.4921998E-2,2.8317569E-2,-3.289902E-2,-1.5975263E-2,2.2202355E-3,2.205239E-2,-2.2846803E-2,-1.3161682E-3,6.110136E-3,1.8798588E-2,-5.8500925E-3,9.722808E-3,1.6945459E-2,2.7814982E-2,1.5710125E-2,3.0635491E-2,3.0271325E-2,4.071907E-2],"categories":[],"categories_nodes":[],"categories_segments":[],"categories_sizes":[],"default_left":[0,0,0,0,0,0,0,0,0,0,0,0,0,0,0,0,0,0,0,0,0,0,0,0,0,0,0,0,0,0,0,0,0,0,0,0,0,0,0,0,0,0,0,0,0,0,0,0,0,0,0,0,0,0,0,0,0,0,0,0,0,0,0],"id":17,"left_children":[1,3,5,7,9,11,13,15,17,19,21,23,25,27,29,31,33,35,37,39,41,43,45,47,49,51,53,55,57,59,61,-1,-1,-1,-1,-1,-1,-1,-1,-1,-1,-1,-1,-1,-1,-1,-1,-1,-1,-1,-1,-1,-1,-1,-1,-1,-1,-1,-1,-1,-1,-1,-1],"loss_changes":[7.033175E4,1.0293977E4,1.4857859E4,2.8994531E3,2.2967964E3,4.9583384E3,5.123422E3,3.9333594E2,1.6909629E3,5.516765E2,8.843621E2,1.3364985E3,9.552771E2,3.7386035E3,1.6663613E3,1.94625E2,4.347281E1,4.515957E2,5.864573E2,2.3563501E2,1.02442085E2,3.473545E2,9.5500305E1,8.150718E2,1.1850263E2,3.5247925E2,5.310382E2,1.1332811E3,6.331084E2,1.5252861E3,2.9308008E2,0E0,0E0,0E0,0E0,0E0,0E0,0E0,0E0,0E0,0E0,0E0,0E0,0E0,0E0,0E0,0E0,0E0,0E0,0E0,0E0,0E0,0E0,0E0,0E0,0E0,0E0,0E0,0E0,0E0,0E0,0E0,0E0],"parents":[2147483647,0,0,1,1,2,2,3,3,4,4,5,5,6,6,7,7,8,8,9,9,10,10,11,11,12,12,13,13,14,14,15,15,16,16,17,17,18,18,19,19,20,20,21,21,22,22,23,23,24,24,25,25,26,26,27,27,28,28,29,29,30,30],"right_children":[2,4,6,8,10,12,14,16,18,20,22,24,26,28,30,32,34,36,38,40,42,44,46,48,50,52,54,56,58,60,62,-1,-1,-1,-1,-1,-1,-1,-1,-1,-1,-1,-1,-1,-1,-1,-1,-1,-1,-1,-1,-1,-1,-1,-1,-1,-1,-1,-1,-1,-1,-1,-1],"split_conditions":[9.563248E-2,1.2296056E0,2.9158384E-1,-7.329094E-1,-7.329094E-1,9.241743E-1,1.2296056E0,2.1083953E0,2.9158384E-1,2.1083953E0,2.167627E0,2.291907E0,-6.464378E-1,9.241743E-1,2.167627E0,9.903294E-1,2.291907E0,2.291907E0,2.1083953E0,-1.2852706E0,2.291907E0,2.1083953E0,2.291907E0,-6.464378E-1,2.1083953E0,-8.0834246E-1,1.4765356E0,1.2027092E0,1.4765356E0,9.241743E-1,6.479937E-1,-5.254472E-2,-3.9154228E-2,-2.7448475E-2,3.2532592E-3,-4.37967E-2,-1.6108677E-2,-2.5541604E-2,-1.0729732E-3,-4.3738913E-2,-2.5487592E-2,-9.66738E-3,1.8456874E-2,-1.0084718E-2,7.016424E-3,1.4921998E-2,2.8317569E-2,-3.289902E-2,-1.5975263E-2,2.2202355E-3,2.205239E-2,-2.2846803E-2,-1.3161682E-3,6.110136E-3,1.8798588E-2,-5.8500925E-3,9.722808E-3,1.6945459E-2,2.7814982E-2,1.5710125E-2,3.0635491E-2,3.0271325E-2,4.071907E-2],"split_indices":[0,1,1,0,0,0,1,3,1,3,1,4,1,0,1,14,4,4,3,0,4,3,4,1,3,10,0,6,0,0,0,0,0,0,0,0,0,0,0,0,0,0,0,0,0,0,0,0,0,0,0,0,0,0,0,0,0,0,0,0,0,0,0],"split_type":[0,0,0,0,0,0,0,0,0,0,0,0,0,0,0,0,0,0,0,0,0,0,0,0,0,0,0,0,0,0,0,0,0,0,0,0,0,0,0,0,0,0,0,0,0,0,0,0,0,0,0,0,0,0,0,0,0,0,0,0,0,0,0],"sum_hessian":[4.073151E5,1.1512638E5,2.9218872E5,8.746582E4,2.766056E4,8.681062E4,2.0537808E5,4.3748445E4,4.3717375E4,9.25615E3,1.840441E4,4.0989707E4,4.5820914E4,1.0410839E5,1.01269695E5,4.2346082E4,1.4023623E3,2.2977496E4,2.0739879E4,7.1894897E3,2.066661E3,1.2735151E4,5.669258E3,3.52564E4,5.7333096E3,9.962087E3,3.5858824E4,4.672837E4,5.738002E4,6.904439E4,3.2225305E4,3.9415773E4,2.9303086E3,1.2758356E3,1.2652673E2,2.1394322E4,1.5831733E3,1.7902945E4,2.8369336E3,3.1618796E3,4.0276099E3,1.66578E3,4.0088095E2,8.0219526E3,4.7131987E3,3.5292085E3,2.140049E3,9.88927E3,2.5367129E4,4.8422607E3,8.910487E2,2.5563806E3,7.4057065E3,2.3005096E4,1.2853729E4,2.3366656E4,2.3361713E4,3.605421E4,2.1325812E4,3.1396258E4,3.764813E4,9.562266E3,2.266304E4],"tree_param":{"num_deleted":"0","num_feature":"15","num_nodes":"63","size_leaf_vector":"1"}},{"base_weights":[-2.2021923E-3,-2.029958E-1,3.7380326E-1,-4.5688394E-1,-1.741097E-2,5.151939E-1,-2.3146312E-1,-2.649432E-1,-6.54568E-1,-2.4790506E-1,1.2081718E-1,4.1264552E-1,7.47542E-1,-4.6144477E-1,2.873912E-1,-2.1199279E-1,-8.2124376E-1,-8.7083924E-1,-5.706683E-1,-7.060532E-2,-4.0714988E-1,1.7372084E-1,-7.1064746E-1,5.6214035E-1,2.5845054E-1,8.4641045E-1,6.4186287E-1,-7.130245E-1,-2.6598758E-1,1.6207787E-1,6.695638E-1,-1.9973684E-2,3.0367845E-4,-5.5928785E-2,-3.8238507E-2,-4.454874E-2,1.8351592E-2,-2.6769927E-2,-5.7546336E-2,-3.2346155E-2,-2.5044363E-3,-2.4089314E-2,-1.1398834E-2,1.7011685E-2,4.3517776E-4,-2.7846595E-2,-4.8883956E-2,2.5930226E-2,3.8563978E-2,9.47588E-3,2.7357489E-2,3.9474748E-2,4.842754E-2,2.6293058E-2,3.7596557E-2,-2.9365975E-2,-4.6522573E-2,-7.039553E-3,-2.6360393E-2,1.5047051E-2,-6.9136578E-3,2.9481167E-2,4.7793996E-2],"categories":[],"categories_nodes":[],"categories_segments":[],"categories_sizes":[],"default_left":[0,0,0,0,0,0,0,0,0,0,0,0,0,0,0,0,0,0,0,0,0,0,0,0,0,0,0,0,0,0,0,0,0,0,0,0,0,0,0,0,0,0,0,0,0,0,0,0,0,0,0,0,0,0,0,0,0,0,0,0,0,0,0],"id":18,"left_children":[1,3,5,7,9,11,13,15,17,19,21,23,25,27,29,31,33,35,37,39,41,43,45,47,49,51,53,55,57,59,61,-1,-1,-1,-1,-1,-1,-1,-1,-1,-1,-1,-1,-1,-1,-1,-1,-1,-1,-1,-1,-1,-1,-1,-1,-1,-1,-1,-1,-1,-1,-1,-1],"loss_changes":[3.0552807E4,1.242972E4,1.205602E4,4.22676E3,4.855667E3,2.7206797E3,3.183463E3,1.6647869E3,9.952793E2,1.6130764E3,4.1907886E3,1.8262578E3,3.6480664E2,9.0875635E2,3.9230048E2,2.1100637E3,8.162549E1,3.826045E2,8.0864355E2,3.1963544E2,4.023994E2,2.461187E3,2.333938E2,3.6587988E2,7.761238E2,1.2480078E2,2.1545752E2,2.2033203E2,3.4018408E2,2.574524E2,4.5738342E1,0E0,0E0,0E0,0E0,0E0,0E0,0E0,0E0,0E0,0E0,0E0,0E0,0E0,0E0,0E0,0E0,0E0,0E0,0E0,0E0,0E0,0E0,0E0,0E0,0E0,0E0,0E0,0E0,0E0,0E0,0E0,0E0],"parents":[2147483647,0,0,1,1,2,2,3,3,4,4,5,5,6,6,7,7,8,8,9,9,10,10,11,11,12,12,13,13,14,14,15,15,16,16,17,17,18,18,19,19,20,20,21,21,22,22,23,23,24,24,25,25,26,26,27,27,28,28,29,29,30,30],"right_children":[2,4,6,8,10,12,14,16,18,20,22,24,26,28,30,32,34,36,38,40,42,44,46,48,50,52,54,56,58,60,62,-1,-1,-1,-1,-1,-1,-1,-1,-1,-1,-1,-1,-1,-1,-1,-1,-1,-1,-1,-1,-1,-1,-1,-1,-1,-1,-1,-1,-1,-1,-1,-1],"split_conditions":[1.1616938E0,2.9158384E-1,2.5223987E0,9.40713E-1,6.6414736E-2,2.2569728E0,2.2569728E0,2.5223987E0,-6.464378E-1,9.40713E-1,2.5223987E0,9.40713E-1,9.40713E-1,2.9158384E-1,4.3037896E0,6.6414736E-2,-8.18884E-1,4.3037896E0,2.5223987E0,-1.2646403E0,1.2296056E0,9.40713E-1,9.40713E-1,4.3037896E0,2.167627E0,2.167627E0,4.3037896E0,9.40713E-1,9.40713E-1,9.40713E-1,2.167627E0,-1.9973684E-2,3.0367845E-4,-5.5928785E-2,-3.8238507E-2,-4.454874E-2,1.8351592E-2,-2.6769927E-2,-5.7546336E-2,-3.2346155E-2,-2.5044363E-3,-2.4089314E-2,-1.1398834E-2,1.7011685E-2,4.3517776E-4,-2.7846595E-2,-4.8883956E-2,2.5930226E-2,3.8563978E-2,9.47588E-3,2.7357489E-2,3.9474748E-2,4.842754E-2,2.6293058E-2,3.7596557E-2,-2.9365975E-2,-4.6522573E-2,-7.039553E-3,-2.6360393E-2,1.5047051E-2,-6.9136578E-3,2.9481167E-2,4.7793996E-2],"split_indices":[13,1,9,7,13,13,13,9,1,7,9,7,7,1,2,13,10,2,9,10,1,7,7,2,1,1,2,7,7,7,1,0,0,0,0,0,0,0,0,0,0,0,0,0,0,0,0,0,0,0,0,0,0,0,0,0,0,0,0,0,0,0,0],"split_type":[0,0,0,0,0,0,0,0,0,0,0,0,0,0,0,0,0,0,0,0,0,0,0,0,0,0,0,0,0,0,0,0,0,0,0,0,0,0,0,0,0,0,0,0,0,0,0,0,0,0,0,0,0,0,0,0,0,0,0,0,0,0,0],"sum_hessian":[4.0467366E5,2.6380012E5,1.4087352E5,1.11399414E5,1.5240072E5,1.1419713E5,2.6676375E4,5.6521953E4,5.4877465E4,5.713233E4,9.526839E4,7.923087E4,3.4966273E4,1.8483633E4,8.192741E3,5.1610848E4,4.9111025E3,1.5335989E4,3.9541477E4,2.7034328E4,3.0097998E4,8.95701E4,5.698292E3,4.0227207E4,3.9003656E4,1.8061645E4,1.6904629E4,8.08041E3,1.0403223E4,6.170783E3,2.0219584E3,2.7751166E4,2.3859684E4,7.808971E2,4.1302056E3,1.5090798E4,2.4519075E2,3.7277562E4,2.2639148E3,9.282743E2,2.6106055E4,2.124605E4,8.851946E3,4.4582492E4,4.498761E4,3.6184395E3,2.0798525E3,3.3298945E4,6.9282617E3,3.148711E4,7.516546E3,1.2325577E4,5.736067E3,8.233286E3,8.671344E3,5.1225303E3,2.95788E3,7.0336875E3,3.3695356E3,4.21981E3,1.950973E3,1.5830304E3,4.38928E2],"tree_param":{"num_deleted":"0","num_feature":"15","num_nodes":"63","size_leaf_vector":"1"}},{"base_weights":[-5.141262E-4,-7.523479E-1,2.0766771E-1,-8.5245115E-1,-1.8848331E-1,4.778394E-2,4.6033043E-1,-8.9161223E-1,-3.121136E-1,-4.4529092E-1,1.3151282E-1,-2.8611186E-1,2.1022089E-1,3.606127E-1,6.7127424E-1,-9.1906077E-1,-3.5439032E-1,-4.1742676E-1,1.5096408E-1,-7.1280783E-1,-2.8361166E-1,-3.3734508E-2,4.5505756E-1,-7.366668E-2,-5.079611E-1,4.211311E-1,-1.0923313E-3,1.9573861E-1,5.1733536E-1,7.5166106E-1,5.71838E-1,-5.1593956E-2,-4.1004803E-2,-2.8988203E-2,-1.0174748E-2,-8.976415E-3,-2.8865162E-2,2.2934466E-3,3.370241E-2,1.1791105E-2,-3.771246E-2,-2.2768961E-2,-4.5850957E-3,-2.8691117E-2,1.8694245E-3,3.686459E-2,1.9220546E-2,-1.0672089E-2,5.7644746E-3,-3.2127995E-2,-1.2314803E-2,1.5391006E-2,2.7993103E-2,-6.436949E-3,1.4726593E-2,-9.676074E-3,1.2915671E-2,3.1803276E-2,1.9307148E-2,3.1582277E-2,4.0862314E-2,2.461437E-2,3.6046475E-2],"categories":[],"categories_nodes":[],"categories_segments":[],"categories_sizes":[],"default_left":[0,0,0,0,0,0,0,0,0,0,0,0,0,0,0,0,0,0,0,0,0,0,0,0,0,0,0,0,0,0,0,0,0,0,0,0,0,0,0,0,0,0,0,0,0,0,0,0,0,0,0,0,0,0,0,0,0,0,0,0,0,0,0],"id":19,"left_children":[1,3,5,7,9,11,13,15,17,19,21,23,25,27,29,31,33,35,37,39,41,43,45,47,49,51,53,55,57,59,61,-1,-1,-1,-1,-1,-1,-1,-1,-1,-1,-1,-1,-1,-1,-1,-1,-1,-1,-1,-1,-1,-1,-1,-1,-1,-1,-1,-1,-1,-1,-1,-1],"loss_changes":[6.3097324E4,4.9342305E3,1.2753651E4,1.5706523E3,1.0832543E3,1.0487183E4,2.5734746E3,1.0204258E3,2.4480527E2,3.1609143E2,3.1382053E2,2.982461E3,5.797288E3,2.1467188E3,3.1349023E2,7.344453E2,1.1436984E2,1.554154E2,5.1126083E1,1.0844812E2,1.5026419E2,1.49294E2,3.9282196E1,8.538237E2,1.0900825E3,1.0231924E3,2.4519895E3,9.8630273E2,6.632168E2,1.7039648E2,2.0791699E2,0E0,0E0,0E0,0E0,0E0,0E0,0E0,0E0,0E0,0E0,0E0,0E0,0E0,0E0,0E0,0E0,0E0,0E0,0E0,0E0,0E0,0E0,0E0,0E0,0E0,0E0,0E0,0E0,0E0,0E0,0E0,0E0],"parents":[2147483647,0,0,1,1,2,2,3,3,4,4,5,5,6,6,7,7,8,8,9,9,10,10,11,11,12,12,13,13,14,14,15,15,16,16,17,17,18,18,19,19,20,20,21,21,22,22,23,23,24,24,25,25,26,26,27,27,28,28,29,29,30,30],"right_children":[2,4,6,8,10,12,14,16,18,20,22,24,26,28,30,32,34,36,38,40,42,44,46,48,50,52,54,56,58,60,62,-1,-1,-1,-1,-1,-1,-1,-1,-1,-1,-1,-1,-1,-1,-1,-1,-1,-1,-1,-1,-1,-1,-1,-1,-1,-1,-1,-1,-1,-1,-1,-1],"split_conditions":[-1.8054813E-1,1.2662431E0,1.1616938E0,2.291907E0,1.1616938E0,6.479937E-1,2.2569728E0,2.1083953E0,2.2569728E0,6.6414736E-2,2.2569728E0,9.40713E-1,9.40713E-1,9.241743E-1,9.40713E-1,-1.00909E0,1.1616938E0,4.498929E-2,3.352252E0,-1.9007778E0,-7.329094E-1,-1.2852706E0,-9.278943E-1,3.718131E-1,1.074055E-1,1.2003549E0,1.4765356E0,-4.4442195E-1,9.40713E-1,5.222275E-2,1.7628878E0,-5.1593956E-2,-4.1004803E-2,-2.8988203E-2,-1.0174748E-2,-8.976415E-3,-2.8865162E-2,2.2934466E-3,3.370241E-2,1.1791105E-2,-3.771246E-2,-2.2768961E-2,-4.5850957E-3,-2.8691117E-2,1.8694245E-3,3.686459E-2,1.9220546E-2,-1.0672089E-2,5.7644746E-3,-3.2127995E-2,-1.2314803E-2,1.5391006E-2,2.7993103E-2,-6.436949E-3,1.4726593E-2,-9.676074E-3,1.2915671E-2,3.1803276E-2,1.9307148E-2,3.1582277E-2,4.0862314E-2,2.461437E-2,3.6046475E-2],"split_indices":[0,14,13,4,13,0,13,3,13,13,13,7,7,0,7,0,13,11,13,11,0,0,11,0,14,0,0,14,7,14,14,0,0,0,0,0,0,0,0,0,0,0,0,0,0,0,0,0,0,0,0,0,0,0,0,0,0,0,0,0,0,0,0],"split_type":[0,0,0,0,0,0,0,0,0,0,0,0,0,0,0,0,0,0,0,0,0,0,0,0,0,0,0,0,0,0,0,0,0,0,0,0,0,0,0,0,0,0,0,0,0,0,0,0,0,0,0,0,0,0,0,0,0,0,0,0,0,0,0],"sum_hessian":[4.0312906E5,8.7419E4,3.1571006E5,7.423882E4,1.3180182E4,1.9335631E5,1.2235376E5,6.9221336E4,5.017482E3,7.3118145E3,5.868367E3,6.32803E4,1.30076016E5,8.308186E4,3.92719E4,6.585582E4,3.3655117E3,4.0879082E3,9.2957385E2,2.7530945E3,4.5587197E3,3.8850247E3,1.9833427E3,3.2325957E4,3.0954344E4,6.5099586E4,6.4976426E4,4.04891E4,4.2592754E4,2.171245E4,1.7559451E4,3.0769568E4,3.5086254E4,1.3485331E3,2.0169788E3,1.6438938E3,2.4440144E3,7.749607E2,1.5461311E2,1.1503964E2,2.638055E3,2.4048772E3,2.1538425E3,4.5125494E2,3.4337695E3,3.9517554E2,1.5881671E3,1.8581027E4,1.3744931E4,2.043913E4,1.0515213E4,3.5834414E4,2.9265172E4,4.5381746E4,1.959468E4,5.6070625E3,3.488204E4,2.2356287E4,2.0236467E4,7.6762246E3,1.4036224E4,1.145286E4,6.1065913E3],"tree_param":{"num_deleted":"0","num_feature":"15","num_nodes":"63","size_leaf_vector":"1"}},{"base_weights":[-2.1796541E-4,-1.8322043E-1,3.4366542E-1,-3.857038E-1,-2.7198946E-2,4.7666058E-1,-2.2515309E-1,-2.4986868E-1,-6.0385484E-1,5.3147472E-2,-8.259785E-1,3.7889627E-1,7.0148927E-1,-4.3986887E-1,2.561719E-1,-8.99529E-2,-4.3042105E-1,-6.7716825E-1,-2.3750284E-1,2.159298E-1,-1.1638439E-1,-6.8015677E-1,-1.0550269E0,5.222351E-1,2.317383E-1,8.00278E-1,5.97277E-1,-3.1321943E-1,-6.8701494E-1,1.3640012E-1,6.323955E-1,-2.1377767E-2,-8.5345254E-4,-3.867739E-2,-1.8159185E-2,-4.096956E-2,-2.9557852E-2,-2.1657574E-3,-1.7679004E-2,-1.1708555E-2,1.2686987E-2,2.272787E-3,-1.332141E-2,-4.9979325E-2,-3.177811E-2,-5.4627307E-2,-4.288382E-2,1.6754657E-2,2.7439354E-2,1.9849297E-2,7.537751E-3,3.8373854E-2,4.9623925E-2,2.8112113E-2,4.1166633E-2,-2.6961986E-2,-1.0057262E-2,-3.871466E-2,-1.1152674E-2,1.3648425E-2,-7.5968215E-3,2.8288333E-2,5.0070245E-2],"categories":[],"categories_nodes":[],"categories_segments":[],"categories_sizes":[],"default_left":[0,0,0,0,0,0,0,0,0,0,0,0,0,0,0,0,0,0,0,0,0,0,0,0,0,0,0,0,0,0,0,0,0,0,0,0,0,0,0,0,0,0,0,0,0,0,0,0,0,0,0,0,0,0,0,0,0,0,0,0,0,0,0],"id":20,"left_children":[1,3,5,7,9,11,13,15,17,19,21,23,25,27,29,31,33,35,37,39,41,43,45,47,49,51,53,55,57,59,61,-1,-1,-1,-1,-1,-1,-1,-1,-1,-1,-1,-1,-1,-1,-1,-1,-1,-1,-1,-1,-1,-1,-1,-1,-1,-1,-1,-1,-1,-1,-1,-1],"loss_changes":[2.5210768E4,8.260109E3,1.0526219E4,3.3717207E3,9.477756E3,2.478543E3,2.7252344E3,2.0247407E3,1.1725791E3,3.7029724E3,4.500752E2,1.6578154E3,3.5136328E2,5.7054443E2,3.6647546E2,9.15078E2,7.596255E2,4.4457422E2,1.6413504E2,1.1650156E3,1.5960967E3,1.1687622E2,3.792383E1,1.9766016E2,5.1897144E2,1.09828125E2,1.3128613E2,3.0533777E2,2.4997363E2,2.4306848E2,4.7724E1,0E0,0E0,0E0,0E0,0E0,0E0,0E0,0E0,0E0,0E0,0E0,0E0,0E0,0E0,0E0,0E0,0E0,0E0,0E0,0E0,0E0,0E0,0E0,0E0,0E0,0E0,0E0,0E0,0E0,0E0,0E0,0E0],"parents":[2147483647,0,0,1,1,2,2,3,3,4,4,5,5,6,6,7,7,8,8,9,9,10,10,11,11,12,12,13,13,14,14,15,15,16,16,17,17,18,18,19,19,20,20,21,21,22,22,23,23,24,24,25,25,26,26,27,27,28,28,29,29,30,30],"right_children":[2,4,6,8,10,12,14,16,18,20,22,24,26,28,30,32,34,36,38,40,42,44,46,48,50,52,54,56,58,60,62,-1,-1,-1,-1,-1,-1,-1,-1,-1,-1,-1,-1,-1,-1,-1,-1,-1,-1,-1,-1,-1,-1,-1,-1,-1,-1,-1,-1,-1,-1,-1,-1],"split_conditions":[1.1616938E0,6.6414736E-2,2.5223987E0,-4.5458102E-1,2.5223987E0,2.2569728E0,2.2569728E0,9.40713E-1,5.538328E-1,9.40713E-1,9.40713E-1,9.40713E-1,9.40713E-1,9.40713E-1,3.352252E0,-7.755184E-1,-7.755184E-1,-3.3405647E-1,9.40713E-1,-7.755184E-1,1.2027092E0,-8.5653234E-1,5.4886746E-1,-6.0997015E-1,1.2027092E0,3.352252E0,3.352252E0,-4.4442195E-1,5.538328E-1,9.40713E-1,4.447531E0,-2.1377767E-2,-8.5345254E-4,-3.867739E-2,-1.8159185E-2,-4.096956E-2,-2.9557852E-2,-2.1657574E-3,-1.7679004E-2,-1.1708555E-2,1.2686987E-2,2.272787E-3,-1.332141E-2,-4.9979325E-2,-3.177811E-2,-5.4627307E-2,-4.288382E-2,1.6754657E-2,2.7439354E-2,1.9849297E-2,7.537751E-3,3.8373854E-2,4.9623925E-2,2.8112113E-2,4.1166633E-2,-2.6961986E-2,-1.0057262E-2,-3.871466E-2,-1.1152674E-2,1.3648425E-2,-7.5968215E-3,2.8288333E-2,5.0070245E-2],"split_indices":[13,13,9,12,9,13,13,7,5,7,7,7,7,7,13,14,14,14,7,14,6,10,14,14,6,13,13,14,5,7,13,0,0,0,0,0,0,0,0,0,0,0,0,0,0,0,0,0,0,0,0,0,0,0,0,0,0,0,0,0,0,0,0],"split_type":[0,0,0,0,0,0,0,0,0,0,0,0,0,0,0,0,0,0,0,0,0,0,0,0,0,0,0,0,0,0,0,0,0,0,0,0,0,0,0,0,0,0,0,0,0,0,0,0,0,0,0,0,0,0,0,0,0,0,0,0,0,0,0],"sum_hessian":[4.0060444E5,2.614634E5,1.3914103E5,1.1378837E5,1.4767505E5,1.1277364E5,2.6367383E4,7.012568E4,4.3662688E4,1.3417936E5,1.3495693E4,7.8598586E4,3.417506E4,1.823359E4,8.1337935E3,3.718888E4,3.29368E4,3.638131E4,7.28138E3,6.845217E4,6.572718E4,8.248393E3,5.247301E3,3.9814664E4,3.878392E4,1.754063E4,1.663443E4,1.2057181E4,6.1764087E3,6.1706978E3,1.9630956E3,6.6022036E3,3.0586676E4,5.3949116E3,2.7541889E4,1.3707275E4,2.2674033E4,2.7246448E3,4.5567354E3,5.3041997E3,6.3147973E4,3.1620934E4,3.4106246E4,1.0078416E3,7.240551E3,4.405261E3,8.4203955E2,4.9487534E3,3.486591E4,1.2754423E4,2.6029498E4,1.4987806E4,2.5528242E3,1.4405337E4,2.229092E3,3.995544E3,8.061637E3,5.1979297E3,9.7847906E2,4.1874146E3,1.9832834E3,1.6649949E3,2.9810074E2],"tree_param":{"num_deleted":"0","num_feature":"15","num_nodes":"63","size_leaf_vector":"1"}},{"base_weights":[-2.0773614E-4,-7.1273154E-1,1.9460276E-1,-7.6555604E-1,5.813257E-1,4.3757588E-2,4.842288E-1,-8.732768E-1,-3.5802656E-1,4.4141072E-1,6.9516397E-1,-1.7508286E-1,2.6500022E-1,4.185191E-1,7.9242396E-1,-9.655943E-1,-7.2192603E-1,-6.884636E-1,-1.9713697E-1,6.589176E-1,2.5968996E-1,7.805374E-1,6.125965E-1,-2.2218187E-1,5.183125E-1,1.2611206E-1,3.764536E-1,2.1067446E-1,5.249337E-1,7.3107076E-1,8.823923E-1,-5.1036924E-2,-4.4132214E-2,-4.3170612E-2,-2.7784238E-2,-4.182749E-2,-2.0864591E-2,-2.785386E-2,-5.0281542E-3,2.7416227E-2,5.059573E-2,3.213714E-2,8.9228405E-3,3.344855E-2,4.795815E-2,-4.40731E-2,3.142824E-2,-2.195902E-2,-4.687567E-3,2.214294E-2,3.4108754E-2,-5.536081E-3,9.607125E-3,1.6931107E-2,3.2691915E-2,5.401397E-3,2.1849139E-2,2.3026142E-2,3.429367E-2,3.0600268E-2,3.8938377E-2,4.204943E-2,4.634184E-2],"categories":[],"categories_nodes":[],"categories_segments":[],"categories_sizes":[],"default_left":[0,0,0,0,0,0,0,0,0,0,0,0,0,0,0,0,0,0,0,0,0,0,0,0,0,0,0,0,0,0,0,0,0,0,0,0,0,0,0,0,0,0,0,0,0,0,0,0,0,0,0,0,0,0,0,0,0,0,0,0,0,0,0],"id":21,"left_children":[1,3,5,7,9,11,13,15,17,19,21,23,25,27,29,31,33,35,37,39,41,43,45,47,49,51,53,55,57,59,61,-1,-1,-1,-1,-1,-1,-1,-1,-1,-1,-1,-1,-1,-1,-1,-1,-1,-1,-1,-1,-1,-1,-1,-1,-1,-1,-1,-1,-1,-1,-1,-1],"loss_changes":[5.5260797E4,5.8434883E3,1.3658588E4,3.6049375E3,5.309839E1,9.953099E3,2.1679023E3,9.068828E2,9.1275244E2,5.939157E1,1.2541687E1,3.3752356E3,1.5823394E3,1.9518281E3,1.0320801E2,1.8363281E2,5.784424E2,2.254314E2,4.0142215E2,2.6197845E1,2.5483727E1,1.7382568E1,2.3065887E1,2.6969775E3,8.097461E1,7.117539E2,5.9491846E2,6.941904E2,6.047383E2,6.3083496E1,1.3249023E1,0E0,0E0,0E0,0E0,0E0,0E0,0E0,0E0,0E0,0E0,0E0,0E0,0E0,0E0,0E0,0E0,0E0,0E0,0E0,0E0,0E0,0E0,0E0,0E0,0E0,0E0,0E0,0E0,0E0,0E0,0E0,0E0],"parents":[2147483647,0,0,1,1,2,2,3,3,4,4,5,5,6,6,7,7,8,8,9,9,10,10,11,11,12,12,13,13,14,14,15,15,16,16,17,17,18,18,19,19,20,20,21,21,22,22,23,23,24,24,25,25,26,26,27,27,28,28,29,29,30,30],"right_children":[2,4,6,8,10,12,14,16,18,20,22,24,26,28,30,32,34,36,38,40,42,44,46,48,50,52,54,56,58,60,62,-1,-1,-1,-1,-1,-1,-1,-1,-1,-1,-1,-1,-1,-1,-1,-1,-1,-1,-1,-1,-1,-1,-1,-1,-1,-1,-1,-1,-1,-1,-1,-1],"split_conditions":[-1.8054813E-1,4.3037896E0,1.2296056E0,1.2296056E0,1.2296056E0,9.241743E-1,4.3037896E0,-7.329094E-1,-1.00909E0,4.498929E-2,-1.5326136E-1,4.3037896E0,2.9158384E-1,6.479937E-1,2.167627E0,2.9158384E-1,2.9158384E-1,9.903642E-1,6.6414736E-2,2.291907E0,-6.464378E-1,-3.249378E-1,-1.0657742E-1,3.718131E-1,2.291907E0,-6.464378E-1,4.3037896E0,2.167627E0,2.167627E0,6.479937E-1,2.291907E0,-5.1036924E-2,-4.4132214E-2,-4.3170612E-2,-2.7784238E-2,-4.182749E-2,-2.0864591E-2,-2.785386E-2,-5.0281542E-3,2.7416227E-2,5.059573E-2,3.213714E-2,8.9228405E-3,3.344855E-2,4.795815E-2,-4.40731E-2,3.142824E-2,-2.195902E-2,-4.687567E-3,2.214294E-2,3.4108754E-2,-5.536081E-3,9.607125E-3,1.6931107E-2,3.2691915E-2,5.401397E-3,2.1849139E-2,2.3026142E-2,3.429367E-2,3.0600268E-2,3.8938377E-2,4.204943E-2,4.634184E-2],"split_indices":[0,2,1,1,1,0,2,0,0,11,10,2,1,0,1,1,1,5,13,4,1,10,10,0,4,1,2,1,1,0,4,0,0,0,0,0,0,0,0,0,0,0,0,0,0,0,0,0,0,0,0,0,0,0,0,0,0,0,0,0,0,0,0],"split_type":[0,0,0,0,0,0,0,0,0,0,0,0,0,0,0,0,0,0,0,0,0,0,0,0,0,0,0,0,0,0,0,0,0,0,0,0,0,0,0,0,0,0,0,0,0,0,0,0,0,0,0,0,0,0,0,0,0,0,0,0,0,0,0],"sum_hessian":[3.9811012E5,8.547623E4,3.126339E5,8.212426E4,3.3519717E3,2.0556906E5,1.0706485E5,6.4954047E4,1.7170209E4,1.5059426E3,1.8460289E3,1.0334568E5,1.02223375E5,8.825132E4,1.881353E4,4.0341863E4,2.4612184E4,5.6214746E3,1.1548733E4,6.842808E2,8.2166174E2,9.034365E2,9.4259247E2,9.677303E4,6.5726475E3,4.5511344E4,5.6712035E4,2.9884707E4,5.8366613E4,1.1191027E4,7.6225024E3,2.4225643E4,1.6116222E4,1.3293788E4,1.13183955E4,3.6345645E3,1.98691E3,2.4420837E3,9.106649E3,5.229845E2,1.6129636E2,1.425515E2,6.791102E2,5.590247E2,3.444118E2,9.394606E0,9.331978E2,3.597932E4,6.079371E4,4.5029023E3,2.0697454E3,9.922236E3,3.558911E4,4.9907543E4,6.80449E3,2.0560549E4,9.324159E3,4.1686723E4,1.667989E4,3.2047742E3,7.9862524E3,3.9565605E3,3.665942E3],"tree_param":{"num_deleted":"0","num_feature":"15","num_nodes":"63","size_leaf_vector":"1"}},{"base_weights":[1.1227097E-3,-1.6301057E-1,3.556221E-1,-2.1420835E-1,5.3187364E-1,2.7716008E-1,7.571723E-1,-2.9698318E-1,1.8037248E-1,4.7710735E-1,6.7086333E-1,-6.3315876E-2,3.4032997E-1,6.959782E-1,8.460944E-1,-4.4521838E-1,-1.294477E-1,3.5145167E-2,2.7662072E-1,3.6530313E-1,5.2730685E-1,5.8644795E-1,7.515267E-1,-1.2571248E-1,1.0715072E-1,2.5759402E-1,5.2827144E-1,6.566497E-1,7.549216E-1,7.967959E-1,9.023278E-1,-1.9752977E-2,-3.7663322E-2,-1.2807657E-2,8.580153E-4,5.043408E-4,1.374638E-2,1.5261418E-2,-2.841568E-4,1.9842682E-2,1.0329249E-2,2.6009047E-2,3.7097394E-2,2.6796937E-2,3.835777E-2,3.528837E-2,4.0448453E-2,-3.726339E-3,-2.0037783E-2,5.119247E-4,1.2863315E-2,8.204258E-3,1.9522363E-2,2.1787785E-2,3.233126E-2,3.8725972E-2,3.125531E-2,3.430669E-2,3.8916524E-2,4.930181E-2,3.8472123E-2,4.260949E-2,4.6934474E-2],"categories":[],"categories_nodes":[],"categories_segments":[],"categories_sizes":[],"default_left":[0,0,0,0,0,0,0,0,0,0,0,0,0,0,0,0,0,0,0,0,0,0,0,0,0,0,0,0,0,0,0,0,0,0,0,0,0,0,0,0,0,0,0,0,0,0,0,0,0,0,0,0,0,0,0,0,0,0,0,0,0,0,0],"id":22,"left_children":[1,3,5,7,9,11,13,15,17,19,21,23,25,27,29,31,33,35,37,39,41,43,45,47,49,51,53,55,57,59,61,-1,-1,-1,-1,-1,-1,-1,-1,-1,-1,-1,-1,-1,-1,-1,-1,-1,-1,-1,-1,-1,-1,-1,-1,-1,-1,-1,-1,-1,-1,-1,-1],"loss_changes":[2.3035377E4,9.627368E3,3.9472656E3,8.231953E3,1.410332E2,2.254316E3,1.1084961E2,5.1738496E3,6.108895E2,7.459131E1,3.5283447E1,1.7449371E2,1.3745947E3,2.763916E1,2.2411133E1,1.7075938E3,1.816772E3,1.0467305E2,2.122771E2,2.0609863E1,1.3675537E1,2.3029297E1,6.4716797E0,1.6903397E2,6.3950794E1,7.625593E2,2.9560547E2,2.6609863E1,7.276123E0,2.229956E1,6.291992E0,0E0,0E0,0E0,0E0,0E0,0E0,0E0,0E0,0E0,0E0,0E0,0E0,0E0,0E0,0E0,0E0,0E0,0E0,0E0,0E0,0E0,0E0,0E0,0E0,0E0,0E0,0E0,0E0,0E0,0E0,0E0,0E0],"parents":[2147483647,0,0,1,1,2,2,3,3,4,4,5,5,6,6,7,7,8,8,9,9,10,10,11,11,12,12,13,13,14,14,15,15,16,16,17,17,18,18,19,19,20,20,21,21,22,22,23,23,24,24,25,25,26,26,27,27,28,28,29,29,30,30],"right_children":[2,4,6,8,10,12,14,16,18,20,22,24,26,28,30,32,34,36,38,40,42,44,46,48,50,52,54,56,58,60,62,-1,-1,-1,-1,-1,-1,-1,-1,-1,-1,-1,-1,-1,-1,-1,-1,-1,-1,-1,-1,-1,-1,-1,-1,-1,-1,-1,-1,-1,-1,-1,-1],"split_conditions":[1.2296056E0,4.3037896E0,4.3037896E0,2.291907E0,2.291907E0,6.6414736E-2,2.167627E0,2.9158384E-1,1.1616938E0,-4.4442195E-1,1.2027092E0,1.4268956E0,2.167627E0,2.291907E0,2.291907E0,2.5223987E0,1.2027092E0,5.538328E-1,2.5223987E0,-6.651529E-1,2.0388014E0,2.2643425E-1,2.1083953E0,1.1006949E0,2.167627E0,2.291907E0,2.291907E0,1.1616938E0,5.222275E-2,1.1616938E0,1.2027092E0,-1.9752977E-2,-3.7663322E-2,-1.2807657E-2,8.580153E-4,5.043408E-4,1.374638E-2,1.5261418E-2,-2.841568E-4,1.9842682E-2,1.0329249E-2,2.6009047E-2,3.7097394E-2,2.6796937E-2,3.835777E-2,3.528837E-2,4.0448453E-2,-3.726339E-3,-2.0037783E-2,5.119247E-4,1.2863315E-2,8.204258E-3,1.9522363E-2,2.1787785E-2,3.233126E-2,3.8725972E-2,3.125531E-2,3.430669E-2,3.8916524E-2,4.930181E-2,3.8472123E-2,4.260949E-2,4.6934474E-2],"split_indices":[1,2,2,4,4,13,1,1,13,14,6,5,1,4,4,9,6,5,9,14,14,5,3,14,1,4,4,13,14,13,6,0,0,0,0,0,0,0,0,0,0,0,0,0,0,0,0,0,0,0,0,0,0,0,0,0,0,0,0,0,0,0,0],"split_type":[0,0,0,0,0,0,0,0,0,0,0,0,0,0,0,0,0,0,0,0,0,0,0,0,0,0,0,0,0,0,0,0,0,0,0,0,0,0,0,0,0,0,0,0,0,0,0,0,0,0,0,0,0,0,0,0,0,0,0,0,0,0,0],"sum_hessian":[3.9589588E5,2.7060584E5,1.25290016E5,2.5203692E5,1.856892E4,1.0481173E5,2.047829E4,2.0833322E5,4.370372E4,1.33234795E4,5.2454404E3,1.640286E4,8.840887E4,1.2135648E4,8.342641E3,1.10532516E5,9.7800695E4,1.7420139E4,2.6283578E4,4.131065E3,9.192415E3,2.567151E3,2.6782896E3,1.2007842E4,4.395018E3,6.138723E4,2.7021637E4,7.286232E3,4.849417E3,4.453514E3,3.8891272E3,9.505688E4,1.5475632E4,5.2460848E4,4.5339848E4,1.5772847E4,1.647292E3,2.3865096E4,2.4184824E3,3.4447964E3,6.8626855E2,8.900354E3,2.920616E2,2.0094574E3,5.576935E2,1.4981385E3,1.180151E3,1.0124869E4,1.8829731E3,2.6714443E3,1.7235736E3,3.6029836E4,2.5357398E4,1.516894E4,1.1852696E4,1.5332661E3,5.752966E3,1.2389724E3,3.6104446E3,5.5800415E2,3.8955098E3,1.6451377E3,2.2439895E3],"tree_param":{"num_deleted":"0","num_feature":"15","num_nodes":"63","size_leaf_vector":"1"}},{"base_weights":[-1.5427365E-3,-4.7960615E-1,2.645119E-1,-6.443979E-1,-4.0275645E-2,4.3184724E-1,8.480826E-2,-8.5013396E-1,-4.2416957E-1,2.0577186E-1,-4.3148938E-1,2.8718585E-1,5.3107816E-1,-9.377639E-2,2.5852647E-1,-9.0075034E-1,-5.222689E-1,-4.972051E-1,-4.6690166E-2,8.337164E-2,5.141107E-1,-5.899501E-1,9.115233E-2,4.3175776E-2,3.7463766E-1,3.624919E-1,5.926772E-1,-2.5982478E-1,1.15688905E-1,1.0800036E-1,4.0637964E-1,-4.874746E-2,-4.0198263E-2,-3.8154546E-2,-1.9782057E-2,-1.625487E-2,-3.375343E-2,8.347514E-3,-1.0143801E-2,1.1129574E-2,-2.1266267E-3,3.128832E-2,2.1144243E-2,-4.1830353E-2,-2.129462E-2,-6.097226E-4,2.5133653E-2,-1.2535264E-2,7.272535E-3,1.6233085E-2,3.171692E-2,8.296403E-3,2.1134758E-2,2.7890896E-2,3.847146E-2,-3.6399253E-2,-9.822674E-3,-1.3794887E-2,7.949761E-3,-2.7252703E-3,1.6390145E-2,1.5724702E-2,2.7457645E-2],"categories":[],"categories_nodes":[],"categories_segments":[],"categories_sizes":[],"default_left":[0,0,0,0,0,0,0,0,0,0,0,0,0,0,0,0,0,0,0,0,0,0,0,0,0,0,0,0,0,0,0,0,0,0,0,0,0,0,0,0,0,0,0,0,0,0,0,0,0,0,0,0,0,0,0,0,0,0,0,0,0,0,0],"id":23,"left_children":[1,3,5,7,9,11,13,15,17,19,21,23,25,27,29,31,33,35,37,39,41,43,45,47,49,51,53,55,57,59,61,-1,-1,-1,-1,-1,-1,-1,-1,-1,-1,-1,-1,-1,-1,-1,-1,-1,-1,-1,-1,-1,-1,-1,-1,-1,-1,-1,-1,-1,-1,-1,-1],"loss_changes":[5.0113426E4,1.0198883E4,7.6117383E3,4.641336E3,3.6990725E3,1.8814121E3,3.7865825E3,8.784922E2,1.364167E3,8.903239E2,1.2288672E3,1.1380371E3,8.071387E2,2.0933538E3,1.3769355E3,3.286953E2,2.1577185E2,1.2689443E3,2.6773956E2,2.9604538E2,6.801831E1,4.6037402E2,1.468538E2,4.2299396E2,5.0935107E2,2.4615967E2,3.5038867E2,9.9587476E2,4.5136844E2,1.0951531E3,4.0929297E2,0E0,0E0,0E0,0E0,0E0,0E0,0E0,0E0,0E0,0E0,0E0,0E0,0E0,0E0,0E0,0E0,0E0,0E0,0E0,0E0,0E0,0E0,0E0,0E0,0E0,0E0,0E0,0E0,0E0,0E0,0E0,0E0],"parents":[2147483647,0,0,1,1,2,2,3,3,4,4,5,5,6,6,7,7,8,8,9,9,10,10,11,11,12,12,13,13,14,14,15,15,16,16,17,17,18,18,19,19,20,20,21,21,22,22,23,23,24,24,25,25,26,26,27,27,28,28,29,29,30,30],"right_children":[2,4,6,8,10,12,14,16,18,20,22,24,26,28,30,32,34,36,38,40,42,44,46,48,50,52,54,56,58,60,62,-1,-1,-1,-1,-1,-1,-1,-1,-1,-1,-1,-1,-1,-1,-1,-1,-1,-1,-1,-1,-1,-1,-1,-1,-1,-1,-1,-1,-1,-1,-1,-1],"split_conditions":[3.718131E-1,1.1616938E0,9.40713E-1,-4.5672876E-1,2.5223987E0,9.241743E-1,-1.1332548E-1,1.1006949E0,9.903294E-1,2.2569728E0,2.2569728E0,-4.4442195E-1,-4.4442195E-1,1.2003549E0,1.1616938E0,-1.00909E0,-1.2852706E0,9.40713E-1,9.40713E-1,9.40713E-1,9.40713E-1,-7.329094E-1,3.352252E0,-7.755184E-1,2.2569728E0,-7.755184E-1,2.2569728E0,-7.755184E-1,-7.755184E-1,1.2003549E0,1.2003549E0,-4.874746E-2,-4.0198263E-2,-3.8154546E-2,-1.9782057E-2,-1.625487E-2,-3.375343E-2,8.347514E-3,-1.0143801E-2,1.1129574E-2,